{"learner":{"attributes":{"scikit_learn":"{\"_estimator_type\": \"classifier\"}"},"feature_names":[],"feature_types":[],"gradient_booster":{"model":{"cats":{"enc":[],"feature_segments":[],"sorted_idx":[]},"gbtree_model_param":{"num_parallel_tree":"1","num_trees":"300"},"iteration_indptr":[0,1,2,3,4,5,6,7,8,9,10,11,12,13,14,15,16,17,18,19,20,21,22,23,24,25,26,27,28,29,30,31,32,33,34,35,36,37,38,39,40,41,42,43,44,45,46,47,48,49,50,51,52,53,54,55,56,57,58,59,60,61,62,63,64,65,66,67,68,69,70,71,72,73,74,75,76,77,78,79,80,81,82,83,84,85,86,87,88,89,90,91,92,93,94,95,96,97,98,99,100,101,102,103,104,105,106,107,108,109,110,111,112,113,114,115,116,117,118,119,120,121,122,123,124,125,126,127,128,129,130,131,132,133,134,135,136,137,138,139,140,141,142,143,144,145,146,147,148,149,150,151,152,153,154,155,156,157,158,159,160,161,162,163,164,165,166,167,168,169,170,171,172,173,174,175,176,177,178,179,180,181,182,183,184,185,186,187,188,189,190,191,192,193,194,195,196,197,198,199,200,201,202,203,204,205,206,207,208,209,210,211,212,213,214,215,216,217,218,219,220,221,222,223,224,225,226,227,228,229,230,231,232,233,234,235,236,237,238,239,240,241,242,243,244,245,246,247,248,249,250,251,252,253,254,255,256,257,258,259,260,261,262,263,264,265,266,267,268,269,270,271,272,273,274,275,276,277,278,279,280,281,282,283,284,285,286,287,288,289,290,291,292,293,294,295,296,297,298,299,300],"tree_info":[0,0,0,0,0,0,0,0,0,0,0,0,0,0,0,0,0,0,0,0,0,0,0,0,0,0,0,0,0,0,0,0,0,0,0,0,0,0,0,0,0,0,0,0,0,0,0,0,0,0,0,0,0,0,0,0,0,0,0,0,0,0,0,0,0,0,0,0,0,0,0,0,0,0,0,0,0,0,0,0,0,0,0,0,0,0,0,0,0,0,0,0,0,0,0,0,0,0,0,0,0,0,0,0,0,0,0,0,0,0,0,0,0,0,0,0,0,0,0,0,0,0,0,0,0,0,0,0,0,0,0,0,0,0,0,0,0,0,0,0,0,0,0,0,0,0,0,0,0,0,0,0,0,0,0,0,0,0,0,0,0,0,0,0,0,0,0,0,0,0,0,0,0,0,0,0,0,0,0,0,0,0,0,0,0,0,0,0,0,0,0,0,0,0,0,0,0,0,0,0,0,0,0,0,0,0,0,0,0,0,0,0,0,0,0,0,0,0,0,0,0,0,0,0,0,0,0,0,0,0,0,0,0,0,0,0,0,0,0,0,0,0,0,0,0,0,0,0,0,0,0,0,0,0,0,0,0,0,0,0,0,0,0,0,0,0,0,0,0,0,0,0,0,0,0,0,0,0,0,0,0,0,0,0,0,0,0,0,0,0,0,0,0,0,0,0,0,0,0,0],"trees":[{"base_weights":[2.6820146E-3,-2.593276E-1,3.2667357E-1,-1.012156E0,-1.8834491E-1,5.402792E-1,1.06793076E-1,-1.1225429E0,-1.9924162E-2,-4.2376095E-1,8.469254E-3,4.3732575E-1,1.0104287E0,-2.3488964E-1,2.8883484E-1,-7.386477E-2,-9.2560565E-1,4.7541866E-1,-4.8186755E-1,5.412775E-2,-2.5095565E-2,1.082534E-1,6.0959053E-1,1.4690906E-2,1.2040124E0,-1.24299265E-1,-4.836034E-2,4.0729392E-1,-1.746112E-1,-1.0794255E-2,-5.5542257E-2,4.500437E-2,3.3660845E-3,-3.1515192E-2,-8.5733775E-3,-1.1253423E-2,5.760271E-3,-5.745796E-3,2.196367E-2,5.9589095E-2,2.593006E-2,7.884135E-2,4.738679E-2,-1.4859147E-2,1.89132E-2,1.4654869E-2,4.323415E-2,-1.6909752E-2,2.0678474E-2],"categories":[],"categories_nodes":[],"categories_segments":[],"categories_sizes":[],"default_left":[0,0,0,0,0,0,0,0,0,0,0,0,0,0,0,0,0,0,0,0,0,0,0,0,0,0,0,0,0,0,0,0,0,0,0,0,0,0,0,0,0,0,0,0,0,0,0,0,0],"id":0,"left_children":[1,3,5,7,9,11,13,15,-1,17,19,21,23,25,27,-1,29,31,33,-1,35,37,39,-1,41,43,-1,45,47,-1,-1,-1,-1,-1,-1,-1,-1,-1,-1,-1,-1,-1,-1,-1,-1,-1,-1,-1,-1],"loss_changes":[1.7527057E2,6.0679817E1,4.324247E1,6.0386963E0,4.8432976E1,2.205899E1,2.8464056E1,4.146599E0,0E0,2.5088882E1,2.066626E1,2.172905E1,1.1025566E1,1.2648804E1,1.6477753E1,0E0,6.9662666E0,4.9168854E0,2.0430603E1,0E0,1.5557263E1,9.979067E0,1.2601585E1,0E0,4.4634476E0,1.2217643E1,0E0,1.2069706E1,6.028388E0,0E0,0E0,0E0,0E0,0E0,0E0,0E0,0E0,0E0,0E0,0E0,0E0,0E0,0E0,0E0,0E0,0E0,0E0,0E0,0E0],"parents":[2147483647,0,0,1,1,2,2,3,3,4,4,5,5,6,6,7,7,9,9,10,10,11,11,12,12,13,13,14,14,16,16,17,17,18,18,20,20,21,21,22,22,24,24,25,25,27,27,28,28],"right_children":[2,4,6,8,10,12,14,16,-1,18,20,22,24,26,28,-1,30,32,34,-1,36,38,40,-1,42,44,-1,46,48,-1,-1,-1,-1,-1,-1,-1,-1,-1,-1,-1,-1,-1,-1,-1,-1,-1,-1,-1,-1],"split_conditions":[-4.2788655E-2,-5.264227E-1,-2.3193228E-1,1.365126E0,-2.5078273E-1,1.1256163E0,-2.3761106E-1,-2.8940302E-1,-1.9924162E-2,-1.3580538E0,-1.884412E0,-2.7407482E-1,-7.403354E-2,9.517093E-1,6.1572903E-1,-7.386477E-2,-4.4970343E-1,-1.9429174E-1,9.883963E-2,5.412775E-2,-1.4828786E-1,3.675553E-2,-8.622549E-1,1.4690906E-2,-2.4872527E-1,7.328591E-1,-4.836034E-2,6.70747E-1,7.3763955E-1,-1.0794255E-2,-5.5542257E-2,4.500437E-2,3.3660845E-3,-3.1515192E-2,-8.5733775E-3,-1.1253423E-2,5.760271E-3,-5.745796E-3,2.196367E-2,5.9589095E-2,2.593006E-2,7.884135E-2,4.738679E-2,-1.4859147E-2,1.89132E-2,1.4654869E-2,4.323415E-2,-1.6909752E-2,2.0678474E-2],"split_indices":[44,45,10,114,118,67,45,92,0,21,8,48,55,106,8,0,27,20,45,0,45,94,8,0,21,67,0,44,118,0,0,0,0,0,0,0,0,0,0,0,0,0,0,0,0,0,0,0,0],"split_type":[0,0,0,0,0,0,0,0,0,0,0,0,0,0,0,0,0,0,0,0,0,0,0,0,0,0,0,0,0,0,0,0,0,0,0,0,0,0,0,0,0,0,0,0,0,0,0,0,0],"sum_hessian":[2.0626282E3,1.1403369E3,9.222912E2,9.699189E1,1.043345E3,4.66851E2,4.554402E2,8.1364044E1,1.562785E1,4.7478897E2,5.68556E2,3.8474277E2,8.210822E1,1.5801492E2,2.9742526E2,2.6542538E1,5.4821503E1,2.8278967E1,4.4650998E2,1.6372032E1,5.52184E2,1.3296075E2,2.5178203E2,1.8108461E1,6.3999763E1,1.3841809E2,1.9596827E1,2.3714642E2,6.027885E1,1.1906933E1,4.291457E1,1.3147239E1,1.5131727E1,3.0114618E2,1.4536382E2,2.277201E2,3.2446393E2,7.962762E1,5.3333138E1,3.2247944E1,2.1953407E2,2.3813866E1,4.0185898E1,1.0344148E2,3.4976616E1,1.9125511E2,4.5891304E1,4.762773E1,1.2651116E1],"tree_param":{"num_deleted":"0","num_feature":"124","num_nodes":"49","size_leaf_vector":"1"}},{"base_weights":[-2.2199487E-3,-2.5540027E-1,3.0814704E-1,-4.7602785E-1,-1.0652042E-2,4.8992613E-1,-3.500169E-2,-2.8473401E-2,-6.2227577E-1,-1.5205821E-1,3.462371E-1,1.6069676E-1,6.539429E-1,4.3776937E-2,-9.9220604E-1,1.6118182E-1,-6.311354E-1,-1.0704663E0,-5.349753E-1,-2.9815862E-1,3.2128367E-1,-3.9876148E-2,5.410964E-1,-3.894616E-1,2.9500845E-1,5.819071E-1,1.3206109E0,-2.947816E-1,2.7111778E-1,-6.7325406E-2,-2.3442952E-2,5.5189855E-2,2.6218267E-3,-5.9492875E-2,-9.059014E-3,-2.451325E-2,-6.2016696E-2,-3.655183E-2,-1.7805373E-2,-9.435608E-3,-3.7325673E-2,2.1746354E-3,3.457348E-2,2.5286961E-2,-2.0487072E-2,4.4233676E-2,7.2275302E-3,1.1081351E-2,-3.4365147E-2,4.525841E-4,2.8971557E-2,1.933579E-2,3.9132506E-2,2.9519022E-2,7.8695424E-2,-3.5327885E-2,-5.212733E-3,8.416128E-3,4.311575E-2],"categories":[],"categories_nodes":[],"categories_segments":[],"categories_sizes":[],"default_left":[0,0,0,0,0,0,0,0,0,0,0,0,0,0,0,0,0,0,0,0,0,0,0,0,0,0,0,0,0,0,0,0,0,0,0,0,0,0,0,0,0,0,0,0,0,0,0,0,0,0,0,0,0,0,0,0,0,0,0],"id":1,"left_children":[1,3,5,7,9,11,13,15,17,19,21,23,25,27,29,31,33,35,37,39,41,43,45,47,49,51,53,55,57,-1,-1,-1,-1,-1,-1,-1,-1,-1,-1,-1,-1,-1,-1,-1,-1,-1,-1,-1,-1,-1,-1,-1,-1,-1,-1,-1,-1,-1,-1],"loss_changes":[1.6349043E2,6.1832054E1,5.8359596E1,3.9353073E1,2.7515804E1,3.2817856E1,2.4599182E1,1.7248394E1,1.7026337E1,2.7128372E1,1.1706707E1,1.5236364E1,1.8607864E1,2.321252E1,3.7866898E0,1.1559781E1,8.733036E0,6.3949814E0,1.3030167E1,1.4457695E1,9.411042E0,1.0817945E1,1.3804562E1,7.5640273E0,1.3380398E1,1.4063538E1,6.03257E0,9.342542E0,1.0722607E1,0E0,0E0,0E0,0E0,0E0,0E0,0E0,0E0,0E0,0E0,0E0,0E0,0E0,0E0,0E0,0E0,0E0,0E0,0E0,0E0,0E0,0E0,0E0,0E0,0E0,0E0,0E0,0E0,0E0,0E0],"parents":[2147483647,0,0,1,1,2,2,3,3,4,4,5,5,6,6,7,7,8,8,9,9,10,10,11,11,12,12,13,13,14,14,15,15,16,16,17,17,18,18,19,19,20,20,21,21,22,22,23,23,24,24,25,25,26,26,27,27,28,28],"right_children":[2,4,6,8,10,12,14,16,18,20,22,24,26,28,30,32,34,36,38,40,42,44,46,48,50,52,54,56,58,-1,-1,-1,-1,-1,-1,-1,-1,-1,-1,-1,-1,-1,-1,-1,-1,-1,-1,-1,-1,-1,-1,-1,-1,-1,-1,-1,-1,-1,-1],"split_conditions":[-4.2788655E-2,-7.3851876E-2,2.1461909E-1,-4.3758687E-1,3.27193E-1,-2.718941E-1,1.774242E0,5.264788E-1,-5.264227E-1,4.3231288E-1,-4.505233E-1,-6.633592E-1,1.0784816E0,-2.073692E-1,1.9093056E-1,-1.884412E0,-3.2600015E-1,-3.5643953E-1,-2.4240626E-1,5.742902E-1,4.553406E-2,-1.3457393E-2,-2.6742774E-1,-3.7612575E-1,2.994172E-1,1.4372335E-1,-3.6329225E-1,-1.6054787E-1,9.000977E-1,-6.7325406E-2,-2.3442952E-2,5.5189855E-2,2.6218267E-3,-5.9492875E-2,-9.059014E-3,-2.451325E-2,-6.2016696E-2,-3.655183E-2,-1.7805373E-2,-9.435608E-3,-3.7325673E-2,2.1746354E-3,3.457348E-2,2.5286961E-2,-2.0487072E-2,4.4233676E-2,7.2275302E-3,1.1081351E-2,-3.4365147E-2,4.525841E-4,2.8971557E-2,1.933579E-2,3.9132506E-2,2.9519022E-2,7.8695424E-2,-3.5327885E-2,-5.212733E-3,8.416128E-3,4.311575E-2],"split_indices":[44,45,123,123,118,48,123,29,45,45,44,96,44,52,95,8,105,54,118,8,67,112,54,68,44,67,81,19,44,0,0,0,0,0,0,0,0,0,0,0,0,0,0,0,0,0,0,0,0,0,0,0,0,0,0,0,0,0,0],"split_type":[0,0,0,0,0,0,0,0,0,0,0,0,0,0,0,0,0,0,0,0,0,0,0,0,0,0,0,0,0,0,0,0,0,0,0,0,0,0,0,0,0,0,0,0,0,0,0,0,0,0,0,0,0,0,0,0,0,0,0],"sum_hessian":[2.0786575E3,1.1450709E3,9.335865E2,6.0149835E2,5.435725E2,6.1020245E2,3.23384E2,1.4860603E2,4.5289233E2,3.8992932E2,1.5364319E2,2.0376874E2,4.0643372E2,2.9957828E2,2.380572E1,1.1346552E2,3.5140507E1,7.181176E1,3.8108057E2,2.9840564E2,9.1523705E1,5.1626865E1,1.0201633E2,3.9466118E1,1.6430263E2,3.6862534E2,3.780839E1,1.200548E2,1.7952348E2,1.3143624E1,1.0662096E1,1.0694512E1,1.0277101E2,1.4842953E1,2.0297556E1,1.7276579E1,5.453518E1,1.8006308E2,2.0101749E2,2.4117668E2,5.7228947E1,5.3079773E1,3.844393E1,2.060023E1,3.1026636E1,5.3864048E1,4.8152275E1,1.2906225E1,2.655989E1,8.262019E1,8.168243E1,1.8863338E2,1.7999196E2,1.0696644E1,2.711175E1,3.695423E1,8.310057E1,1.541707E2,2.535278E1],"tree_param":{"num_deleted":"0","num_feature":"124","num_nodes":"59","size_leaf_vector":"1"}},{"base_weights":[1.5503091E-2,-2.4625129E-1,3.1956226E-1,-3.957244E-2,-4.5884973E-1,5.2248013E-1,-1.7298456E-2,7.2093314E-1,-9.3522504E-2,-5.2485603E-1,1.5586697E-1,4.3224886E-1,8.976472E-1,5.03591E-2,-9.270748E-1,-3.5090994E-3,1.0956726E0,-3.3752066E-1,3.7584E-2,-8.901285E-1,-4.1869727E-1,-4.221179E-1,6.3054127E-1,4.0135118E-1,6.15725E-2,1.37378E0,7.615636E-1,7.573805E-1,-1.9660497E-2,-6.678365E-2,-1.4080742E-2,7.580096E-2,2.6049072E-2,-2.246001E-2,2.5267025E-2,-3.80509E-2,4.012852E-3,-7.572828E-2,-3.9759737E-2,-3.4228448E-2,-1.0080818E-2,-4.3043494E-2,3.8610608E-3,1.2170401E-2,6.267254E-2,1.8548412E-2,6.044317E-2,4.431261E-2,8.595708E-2,-5.5385E-4,4.2975623E-2,7.1558135E-4,5.7533156E-2,-1.0758849E-2,1.2947167E-2],"categories":[],"categories_nodes":[],"categories_segments":[],"categories_sizes":[],"default_left":[0,0,0,0,0,0,0,0,0,0,0,0,0,0,0,0,0,0,0,0,0,0,0,0,0,0,0,0,0,0,0,0,0,0,0,0,0,0,0,0,0,0,0,0,0,0,0,0,0,0,0,0,0,0,0],"id":2,"left_children":[1,3,5,7,9,11,13,15,17,19,21,23,25,27,29,-1,31,33,35,37,39,41,43,45,-1,47,49,51,53,-1,-1,-1,-1,-1,-1,-1,-1,-1,-1,-1,-1,-1,-1,-1,-1,-1,-1,-1,-1,-1,-1,-1,-1,-1,-1],"loss_changes":[1.6508235E2,4.890023E1,6.565756E1,2.3244596E1,2.2395355E1,1.9760223E1,2.2388796E1,1.130039E1,1.699436E1,1.8736023E1,1.5063746E1,1.1321381E1,6.192383E0,1.6790176E1,6.102951E0,0E0,5.1908245E0,1.7690165E1,1.1761393E1,5.1226654E0,2.208245E1,5.5762105E0,6.796317E0,1.0891754E1,0E0,2.283409E0,7.045906E0,8.796129E0,1.6818443E1,0E0,0E0,0E0,0E0,0E0,0E0,0E0,0E0,0E0,0E0,0E0,0E0,0E0,0E0,0E0,0E0,0E0,0E0,0E0,0E0,0E0,0E0,0E0,0E0,0E0,0E0],"parents":[2147483647,0,0,1,1,2,2,3,3,4,4,5,5,6,6,7,7,8,8,9,9,10,10,11,11,12,12,13,13,14,14,16,16,17,17,18,18,19,19,20,20,21,21,22,22,23,23,25,25,26,26,27,27,28,28],"right_children":[2,4,6,8,10,12,14,16,18,20,22,24,26,28,30,-1,32,34,36,38,40,42,44,46,-1,48,50,52,54,-1,-1,-1,-1,-1,-1,-1,-1,-1,-1,-1,-1,-1,-1,-1,-1,-1,-1,-1,-1,-1,-1,-1,-1,-1,-1],"split_conditions":[-5.7350606E-2,7.283518E-2,1.4845327E-1,-1.5813104E0,7.411522E-1,9.721804E-1,1.774242E0,-8.657931E-1,-5.3558236E-1,-5.2697355E-1,-6.034238E-1,1.8065792E0,-8.0618334E-1,-1.1412483E0,2.6685822E-1,-3.5090994E-3,1.5189022E-1,6.536734E-1,-2.7636465E-1,-8.068799E-1,4.8227843E-2,7.4029565E-1,2.4011011E-1,1.1651324E0,6.15725E-2,-4.9370694E-1,-9.0087324E-1,6.988602E-2,3.6069885E-1,-6.678365E-2,-1.4080742E-2,7.580096E-2,2.6049072E-2,-2.246001E-2,2.5267025E-2,-3.80509E-2,4.012852E-3,-7.572828E-2,-3.9759737E-2,-3.4228448E-2,-1.0080818E-2,-4.3043494E-2,3.8610608E-3,1.2170401E-2,6.267254E-2,1.8548412E-2,6.044317E-2,4.431261E-2,8.595708E-2,-5.5385E-4,4.2975623E-2,7.1558135E-4,5.7533156E-2,-1.0758849E-2,1.2947167E-2],"split_indices":[44,123,123,123,46,117,123,95,117,44,44,44,54,50,92,0,111,46,46,114,46,26,37,56,0,114,76,51,117,0,0,0,0,0,0,0,0,0,0,0,0,0,0,0,0,0,0,0,0,0,0,0,0,0,0],"split_type":[0,0,0,0,0,0,0,0,0,0,0,0,0,0,0,0,0,0,0,0,0,0,0,0,0,0,0,0,0,0,0,0,0,0,0,0,0,0,0,0,0,0,0,0,0,0,0,0,0,0,0,0,0,0,0],"sum_hessian":[2.0721094E3,1.113444E3,9.586655E2,5.6542206E2,5.480219E2,5.981177E2,3.6054782E2,3.6512207E1,5.2890985E2,4.9516193E2,5.2860016E1,4.8410458E2,1.1401309E2,3.363678E2,2.4180017E1,1.1911538E1,2.460067E1,1.8458076E2,3.4432907E2,1.0962746E2,3.8553445E2,2.379103E1,2.9068983E1,4.6765213E2,1.6452457E1,2.3157852E1,9.085524E1,2.9554396E1,3.0681342E2,1.4057117E1,1.0122899E1,1.3161769E1,1.14389E1,1.6350232E2,2.107844E1,1.649309E1,3.27836E2,1.2354843E1,9.727261E1,1.7211768E2,2.1341678E2,1.2385003E1,1.1406029E1,1.8884016E1,1.0184968E1,4.5222043E2,1.5431704E1,1.12013035E1,1.1956549E1,1.0206923E1,8.0648315E1,1.06752405E1,1.8879156E1,1.8063521E2,1.2617819E2],"tree_param":{"num_deleted":"0","num_feature":"124","num_nodes":"55","size_leaf_vector":"1"}},{"base_weights":[1.0190501E-2,-1.7787863E-1,3.4030834E-1,-3.196735E-1,2.2725338E-1,5.7225794E-1,-1.00163985E-2,-1.2804942E-1,-5.364607E-1,-3.2319393E-2,3.9485264E-1,4.5204505E-1,9.336558E-1,-3.513761E-1,1.6548884E-1,-4.494454E-1,2.2642925E-2,-6.197278E-1,-1.6025241E-2,-1.21156044E-1,4.0447716E-2,1.8221462E-1,7.319767E-1,3.7440678E-1,9.6579343E-1,5.131347E-1,1.0828235E0,-1.2488149E-1,-8.445292E-1,8.8134277E-1,7.262433E-2,2.0580033E-2,-2.6404163E-2,1.2044645E-2,-8.62234E-3,-2.862121E-2,-6.604895E-2,-1.40094785E-2,3.429286E-2,1.7021876E-2,-1.4473066E-2,-3.3877585E-3,2.2635829E-2,4.8345935E-2,1.549527E-2,1.48313865E-2,4.4407517E-2,7.498255E-2,3.493641E-2,-2.298123E-3,4.2079177E-2,6.576219E-2,3.8531918E-2,-4.2098712E-2,2.2562172E-3,-1.2917551E-2,-6.2398802E-2,1.8456532E-2,6.4073525E-2,2.4365755E-2,-3.6065143E-3],"categories":[],"categories_nodes":[],"categories_segments":[],"categories_sizes":[],"default_left":[0,0,0,0,0,0,0,0,0,0,0,0,0,0,0,0,0,0,0,0,0,0,0,0,0,0,0,0,0,0,0,0,0,0,0,0,0,0,0,0,0,0,0,0,0,0,0,0,0,0,0,0,0,0,0,0,0,0,0,0,0],"id":3,"left_children":[1,3,5,7,9,11,13,15,17,19,21,23,25,27,29,31,33,35,37,39,-1,41,43,45,47,49,51,53,55,57,59,-1,-1,-1,-1,-1,-1,-1,-1,-1,-1,-1,-1,-1,-1,-1,-1,-1,-1,-1,-1,-1,-1,-1,-1,-1,-1,-1,-1,-1,-1],"loss_changes":[1.2882634E2,7.600103E1,6.1263725E1,4.055699E1,1.4972338E1,1.9134598E1,1.8100286E1,2.5310574E1,1.9819092E1,1.0139312E1,1.4739841E1,1.3158722E1,6.310951E0,1.1265098E1,1.3081242E1,1.1518276E1,1.5196992E1,1.2175049E1,1.2111894E1,9.6750965E0,0E0,8.82732E0,7.5283546E0,1.1573261E1,5.025486E0,5.8853016E0,4.698944E0,8.854584E0,7.094633E0,4.005604E0,1.0732754E1,0E0,0E0,0E0,0E0,0E0,0E0,0E0,0E0,0E0,0E0,0E0,0E0,0E0,0E0,0E0,0E0,0E0,0E0,0E0,0E0,0E0,0E0,0E0,0E0,0E0,0E0,0E0,0E0,0E0,0E0],"parents":[2147483647,0,0,1,1,2,2,3,3,4,4,5,5,6,6,7,7,8,8,9,9,10,10,11,11,12,12,13,13,14,14,15,15,16,16,17,17,18,18,19,19,21,21,22,22,23,23,24,24,25,25,26,26,27,27,28,28,29,29,30,30],"right_children":[2,4,6,8,10,12,14,16,18,20,22,24,26,28,30,32,34,36,38,40,-1,42,44,46,48,50,52,54,56,58,60,-1,-1,-1,-1,-1,-1,-1,-1,-1,-1,-1,-1,-1,-1,-1,-1,-1,-1,-1,-1,-1,-1,-1,-1,-1,-1,-1,-1,-1,-1],"split_conditions":[4.8223544E-2,1.5838842E-1,1.1064422E-1,1.1064422E-1,-6.502934E-1,8.3104837E-1,-1.5084453E-1,-5.4395884E-1,8.8003933E-1,1.22626E0,2.3305678E-1,1.0808177E-1,-5.9983265E-2,4.028835E-1,-1.0807098E0,-1.3544562E0,-2.6800105E-1,1.774242E0,6.2691444E-1,1.372509E-1,4.0447716E-2,3.784399E-2,7.053099E-1,1.2917688E0,-2.1436699E-3,-3.5312203E-1,-5.4927385E-1,-5.805847E-1,6.5716785E-1,3.2126012E-1,-6.0361224E-1,2.0580033E-2,-2.6404163E-2,1.2044645E-2,-8.62234E-3,-2.862121E-2,-6.604895E-2,-1.40094785E-2,3.429286E-2,1.7021876E-2,-1.4473066E-2,-3.3877585E-3,2.2635829E-2,4.8345935E-2,1.549527E-2,1.48313865E-2,4.4407517E-2,7.498255E-2,3.493641E-2,-2.298123E-3,4.2079177E-2,6.576219E-2,3.8531918E-2,-4.2098712E-2,2.2562172E-3,-1.2917551E-2,-6.2398802E-2,1.8456532E-2,6.4073525E-2,2.4365755E-2,-3.6065143E-3],"split_indices":[44,45,123,123,114,67,67,117,117,48,99,46,55,89,50,123,27,123,122,52,0,37,9,47,24,14,0,33,8,44,107,0,0,0,0,0,0,0,0,0,0,0,0,0,0,0,0,0,0,0,0,0,0,0,0,0,0,0,0,0,0],"split_type":[0,0,0,0,0,0,0,0,0,0,0,0,0,0,0,0,0,0,0,0,0,0,0,0,0,0,0,0,0,0,0,0,0,0,0,0,0,0,0,0,0,0,0,0,0,0,0,0,0,0,0,0,0,0,0,0,0,0,0,0,0],"sum_hessian":[2.0727637E3,1.3205823E3,7.5218146E2,9.7855054E2,3.420317E2,4.5233975E2,2.998417E2,5.205098E2,4.5804074E2,1.3427737E2,2.0775432E2,3.413297E2,1.1101004E2,1.0166664E2,1.9817506E2,1.6572765E2,3.5478217E2,3.945343E2,6.350645E1,1.2233402E2,1.1943351E1,1.2852527E2,7.922906E1,2.9819028E2,4.313944E1,3.0405039E1,8.0605E1,7.066688E1,3.0999763E1,2.1657663E1,1.7651741E2,1.3408237E1,1.523194E2,1.6758263E2,1.8719954E2,3.714375E2,2.3096796E1,4.6680717E1,1.6825733E1,3.2254906E1,9.007912E1,6.699515E1,6.1530113E1,4.9915985E1,2.9313076E1,2.605204E2,3.766988E1,1.2720899E1,3.041854E1,1.1457418E1,1.894762E1,4.4179913E1,3.642509E1,1.2898017E1,5.776886E1,1.3407658E1,1.7592104E1,1.0451247E1,1.1206417E1,4.5239716E1,1.312777E2],"tree_param":{"num_deleted":"0","num_feature":"124","num_nodes":"61","size_leaf_vector":"1"}},{"base_weights":[2.5149714E-2,-3.0380312E-1,2.105549E-1,-3.8045624E-1,2.583207E-1,4.1955653E-1,-7.753442E-2,1.3348968E-1,-4.500681E-1,-2.2061838E-2,4.013323E-1,2.8081635E-1,7.404414E-1,-4.5930266E-1,1.01342864E-1,-1.9270985E-1,5.177766E-1,-9.5200413E-1,-3.9200366E-1,5.834933E-1,-7.005855E-3,8.865563E-2,5.3227E-1,6.0229635E-1,1.1632427E0,-5.748994E-1,4.254237E-2,3.5447184E-2,7.7421254E-1,-2.0088935E-2,1.9149717E-2,3.9014246E-2,-7.222172E-3,-1.4237501E-2,-5.6287404E-2,-2.9619737E-2,-1.2468779E-2,3.8975146E-2,-1.3696355E-2,-1.9487691E-3,2.4287878E-2,1.6889492E-2,3.6922824E-2,-2.3851138E-2,3.5265382E-2,8.4741555E-2,4.9808305E-2,-2.4532497E-2,-6.3241474E-2,2.753394E-2,-2.5420902E-2,-4.2689494E-3,2.3370711E-2,7.564495E-3,5.8564503E-2],"categories":[],"categories_nodes":[],"categories_segments":[],"categories_sizes":[],"default_left":[0,0,0,0,0,0,0,0,0,0,0,0,0,0,0,0,0,0,0,0,0,0,0,0,0,0,0,0,0,0,0,0,0,0,0,0,0,0,0,0,0,0,0,0,0,0,0,0,0,0,0,0,0,0,0],"id":4,"left_children":[1,3,5,7,9,11,13,15,17,-1,19,21,23,25,27,29,31,33,35,37,-1,39,41,43,45,47,49,51,53,-1,-1,-1,-1,-1,-1,-1,-1,-1,-1,-1,-1,-1,-1,-1,-1,-1,-1,-1,-1,-1,-1,-1,-1,-1,-1],"loss_changes":[1.263321E2,3.227771E1,7.9842804E1,2.3615456E1,9.17947E0,3.3891098E1,3.816836E1,1.0039524E1,1.6381157E1,0E0,7.561475E0,2.5894432E1,1.261882E1,1.0421204E1,1.675876E1,5.3717303E0,6.5558367E0,6.402191E0,1.4666847E1,9.799982E0,0E0,1.5596338E1,8.973633E0,1.9973118E1,2.985405E0,7.6409035E0,9.845045E0,1.82237E1,8.038128E0,0E0,0E0,0E0,0E0,0E0,0E0,0E0,0E0,0E0,0E0,0E0,0E0,0E0,0E0,0E0,0E0,0E0,0E0,0E0,0E0,0E0,0E0,0E0,0E0,0E0,0E0],"parents":[2147483647,0,0,1,1,2,2,3,3,4,4,5,5,6,6,7,7,8,8,10,10,11,11,12,12,13,13,14,14,15,15,16,16,17,17,18,18,19,19,21,21,22,22,23,23,24,24,25,25,26,26,27,27,28,28],"right_children":[2,4,6,8,10,12,14,16,18,-1,20,22,24,26,28,30,32,34,36,38,-1,40,42,44,46,48,50,52,54,-1,-1,-1,-1,-1,-1,-1,-1,-1,-1,-1,-1,-1,-1,-1,-1,-1,-1,-1,-1,-1,-1,-1,-1,-1,-1],"split_conditions":[-2.6121792E-1,4.5017752E-1,1.1064422E-1,-8.440341E-1,-7.2355986E-1,4.779693E-1,-1.5084453E-1,7.872869E-3,-5.264227E-1,-2.2061838E-2,7.3098224E-1,1.4372335E-1,1.5166503E0,1.1781178E0,1.5183734E0,-3.2994766E-2,1.8445118E-1,-2.1299113E-1,-4.01559E-1,5.388573E-1,-7.005855E-3,5.5576026E-1,-6.254505E-2,-4.7878367E-1,-6.425848E-1,1.376924E0,4.0155008E-1,3.081772E-1,-1.3573825E-1,-2.0088935E-2,1.9149717E-2,3.9014246E-2,-7.222172E-3,-1.4237501E-2,-5.6287404E-2,-2.9619737E-2,-1.2468779E-2,3.8975146E-2,-1.3696355E-2,-1.9487691E-3,2.4287878E-2,1.6889492E-2,3.6922824E-2,-2.3851138E-2,3.5265382E-2,8.4741555E-2,4.9808305E-2,-2.4532497E-2,-6.3241474E-2,2.753394E-2,-2.5420902E-2,-4.2689494E-3,2.3370711E-2,7.564495E-3,5.8564503E-2],"split_indices":[44,45,123,123,44,117,67,18,45,0,6,67,117,99,67,117,3,50,117,83,0,47,48,45,92,20,101,48,28,0,0,0,0,0,0,0,0,0,0,0,0,0,0,0,0,0,0,0,0,0,0,0,0,0,0],"split_type":[0,0,0,0,0,0,0,0,0,0,0,0,0,0,0,0,0,0,0,0,0,0,0,0,0,0,0,0,0,0,0,0,0,0,0,0,0,0,0,0,0,0,0,0,0,0,0,0,0,0,0,0,0,0,0],"sum_hessian":[2.0694766E3,7.455377E2,1.323939E3,6.565143E2,8.902343E1,7.672262E2,5.5671277E2,7.803393E1,5.7848035E2,1.4637564E1,7.438587E1,5.371617E2,2.300645E2,1.7730069E2,3.7941205E2,4.2335777E1,3.5698154E1,5.8205677E1,5.2027466E2,5.574013E1,1.8645739E1,3.0547113E2,2.3169057E2,1.7541191E2,5.4652576E1,1.4415031E2,3.315038E1,3.4666376E2,3.2748287E1,3.140629E1,1.0929488E1,2.5544764E1,1.0153391E1,1.2688941E1,4.5516735E1,2.1472855E2,3.055461E2,4.5537567E1,1.0202563E1,2.3166318E2,7.380795E1,1.208372E2,1.1085338E2,1.4881962E1,1.6052995E2,1.0739644E1,4.3912933E1,1.3011739E2,1.4032925E1,1.7340084E1,1.5810295E1,2.713382E2,7.5325584E1,1.3384289E1,1.9363998E1],"tree_param":{"num_deleted":"0","num_feature":"124","num_nodes":"55","size_leaf_vector":"1"}},{"base_weights":[-2.3842074E-3,1.860239E-1,-2.2660954E-1,4.5802083E-2,4.97607E-1,-4.1650856E-1,-1.1241465E-2,-5.113896E-1,1.0142917E-1,3.5133532E-1,9.188018E-1,-7.3261213E-1,-2.8201976E-1,-4.874778E-1,1.4875919E-1,-6.7653334E-1,7.3311077E-3,5.4298587E-2,7.209654E-2,4.8212368E-2,5.971363E-1,5.775536E-1,1.1638428E0,-8.3339405E-1,8.080269E-3,-3.990774E-1,1.4238484E-1,-8.1541425E-1,-3.7338898E-2,5.669698E-2,6.0169625E-1,-4.350691E-2,2.0862208E-3,-1.116073E-3,1.9243905E-2,-2.998435E-2,1.0215734E-2,-8.385504E-3,3.47679E-2,-0E0,4.32132E-2,6.5867394E-2,3.3112384E-2,-5.090561E-2,-2.5770927E-2,-1.0988397E-2,-3.6264624E-2,1.6318765E-2,-3.9602615E-2,-5.0746407E-2,-2.1158798E-2,-2.1554256E-2,2.6511902E-2,-8.14903E-3,1.043362E-2,5.209551E-2,1.1789755E-2],"categories":[],"categories_nodes":[],"categories_segments":[],"categories_sizes":[],"default_left":[0,0,0,0,0,0,0,0,0,0,0,0,0,0,0,0,0,0,0,0,0,0,0,0,0,0,0,0,0,0,0,0,0,0,0,0,0,0,0,0,0,0,0,0,0,0,0,0,0,0,0,0,0,0,0,0,0],"id":5,"left_children":[1,3,5,7,9,11,13,15,17,19,21,23,25,27,29,31,-1,-1,33,35,37,39,41,43,-1,45,47,49,51,53,55,-1,-1,-1,-1,-1,-1,-1,-1,-1,-1,-1,-1,-1,-1,-1,-1,-1,-1,-1,-1,-1,-1,-1,-1,-1,-1],"loss_changes":[8.703103E1,4.8820507E1,3.8431072E1,2.3974691E1,2.092994E1,2.0935684E1,3.3795822E1,7.778757E0,2.0135975E1,1.9231762E1,6.566948E0,1.3566841E1,1.759E1,1.6355015E1,1.3725225E1,7.9623833E0,0E0,0E0,2.0267677E1,1.1957901E1,1.090897E1,6.5065794E0,2.8138046E0,7.1656036E0,0E0,1.5929401E1,1.3405401E1,4.464432E0,1.0991183E1,9.280816E0,8.601446E0,0E0,0E0,0E0,0E0,0E0,0E0,0E0,0E0,0E0,0E0,0E0,0E0,0E0,0E0,0E0,0E0,0E0,0E0,0E0,0E0,0E0,0E0,0E0,0E0,0E0,0E0],"parents":[2147483647,0,0,1,1,2,2,3,3,4,4,5,5,6,6,7,7,8,8,9,9,10,10,11,11,12,12,13,13,14,14,15,15,18,18,19,19,20,20,21,21,22,22,23,23,25,25,26,26,27,27,28,28,29,29,30,30],"right_children":[2,4,6,8,10,12,14,16,18,20,22,24,26,28,30,32,-1,-1,34,36,38,40,42,44,-1,46,48,50,52,54,56,-1,-1,-1,-1,-1,-1,-1,-1,-1,-1,-1,-1,-1,-1,-1,-1,-1,-1,-1,-1,-1,-1,-1,-1,-1,-1],"split_conditions":[7.283518E-2,2.6728803E-1,-1.1824028E-1,-4.9367088E-1,5.701103E-1,-3.3949637E-1,-3.472231E-1,6.7030126E-1,-2.0822802E0,-5.265523E-2,-1.751661E-1,1.0643215E0,7.328591E-1,6.752275E-2,6.847306E-1,4.178596E-1,7.3311077E-3,5.4298587E-2,4.695928E-1,-8.0993146E-1,-1.5551468E0,-1.0629431E0,9.331316E-1,-4.528541E-2,8.080269E-3,4.74925E-1,6.300202E-1,7.6420987E-1,-6.789699E-2,-2.1211145E-2,-8.376223E-2,-4.350691E-2,2.0862208E-3,-1.116073E-3,1.9243905E-2,-2.998435E-2,1.0215734E-2,-8.385504E-3,3.47679E-2,-0E0,4.32132E-2,6.5867394E-2,3.3112384E-2,-5.090561E-2,-2.5770927E-2,-1.0988397E-2,-3.6264624E-2,1.6318765E-2,-3.9602615E-2,-5.0746407E-2,-2.1158798E-2,-2.1554256E-2,2.6511902E-2,-8.14903E-3,1.043362E-2,5.209551E-2,1.1789755E-2],"split_indices":[123,47,47,45,117,48,67,76,123,67,31,117,67,117,51,15,0,0,117,104,35,95,78,25,0,2,83,104,45,31,115,0,0,0,0,0,0,0,0,0,0,0,0,0,0,0,0,0,0,0,0,0,0,0,0,0,0],"split_type":[0,0,0,0,0,0,0,0,0,0,0,0,0,0,0,0,0,0,0,0,0,0,0,0,0,0,0,0,0,0,0,0,0,0,0,0,0,0,0,0,0,0,0,0,0,0,0,0,0,0,0,0,0,0,0,0,0],"sum_hessian":[2.0580132E3,1.1181763E3,9.3983704E2,7.721523E2,3.46024E2,4.9870755E2,4.411295E2,6.918329E1,7.02969E2,2.583695E2,8.765447E1,1.4730043E2,3.514071E2,1.10577545E2,3.3055194E2,5.540253E1,1.378076E1,1.9196928E1,6.8377203E2,1.1641229E2,1.4195721E2,3.820902E1,4.9445454E1,1.3254224E2,1.4758196E1,2.756686E2,7.573852E1,6.33743E1,4.7203243E1,2.7583313E2,5.4718796E1,4.358268E1,1.1819851E1,5.256925E2,1.5807957E2,2.1926128E1,9.448616E1,1.59591E1,1.25998116E2,1.2988524E1,2.5220493E1,3.646136E1,1.2984094E1,8.2247E1,5.029524E1,1.7916685E2,9.650174E1,6.3912003E1,1.1826516E1,4.078589E1,2.2588411E1,2.8115377E1,1.9087866E1,1.1249432E2,1.6333882E2,2.3874586E1,3.0844212E1],"tree_param":{"num_deleted":"0","num_feature":"124","num_nodes":"57","size_leaf_vector":"1"}},{"base_weights":[2.1379782E-4,-1.8517663E-1,2.9021844E-1,-3.6450806E-1,1.2943859E-2,4.4662395E-1,-4.490661E-2,-2.675029E-2,-4.7252616E-1,-2.0666513E-1,1.9575971E-1,3.272312E-1,7.995939E-1,2.7725132E-2,-4.7758225E-2,-5.029379E-1,1.2010999E-1,-7.6224816E-1,-3.264909E-1,8.989153E-3,-5.1684594E-1,-1.20854266E-1,3.3525753E-1,2.6215744E-1,8.7573403E-1,9.505499E-1,4.576455E-1,-2.459965E-1,1.9694012E-1,-3.8223676E-2,4.9091275E-3,1.6574679E-2,-1.5917046E-2,-4.3340378E-2,-1.5859833E-2,2.887255E-2,-1.8972555E-2,-9.345479E-3,2.5333716E-2,-3.5524633E-2,1.1396555E-2,4.4166814E-3,-3.071691E-2,1.4114211E-2,5.9061803E-2,3.0241251E-2,7.7402936E-3,6.960351E-2,3.0756338E-2,5.1802017E-2,1.0951363E-2,-5.6783776E-3,4.3319833E-2,-1.9854903E-2,2.053607E-2,2.0281042E-3,3.340132E-2],"categories":[],"categories_nodes":[],"categories_segments":[],"categories_sizes":[],"default_left":[0,0,0,0,0,0,0,0,0,0,0,0,0,0,0,0,0,0,0,0,0,0,0,0,0,0,0,0,0,0,0,0,0,0,0,0,0,0,0,0,0,0,0,0,0,0,0,0,0,0,0,0,0,0,0,0,0],"id":6,"left_children":[1,3,5,7,9,11,13,15,17,19,21,23,25,27,-1,29,31,33,35,37,39,41,43,45,47,49,51,53,55,-1,-1,-1,-1,-1,-1,-1,-1,-1,-1,-1,-1,-1,-1,-1,-1,-1,-1,-1,-1,-1,-1,-1,-1,-1,-1,-1,-1],"loss_changes":[1.1047398E2,4.4563435E1,4.2068214E1,2.3946274E1,2.3971077E1,2.2665504E1,1.7026152E1,1.1339971E1,2.072609E1,1.818525E1,1.4462829E1,1.4306389E1,6.5105515E0,1.1053202E1,0E0,6.153964E0,1.1553073E1,7.3324585E0,1.6155289E1,1.5791307E1,1.6271257E1,1.0454415E1,9.6849E0,1.3385895E1,4.720913E0,5.53286E0,1.0487861E1,9.194411E0,1.0780649E1,0E0,0E0,0E0,0E0,0E0,0E0,0E0,0E0,0E0,0E0,0E0,0E0,0E0,0E0,0E0,0E0,0E0,0E0,0E0,0E0,0E0,0E0,0E0,0E0,0E0,0E0,0E0,0E0],"parents":[2147483647,0,0,1,1,2,2,3,3,4,4,5,5,6,6,7,7,8,8,9,9,10,10,11,11,12,12,13,13,15,15,16,16,17,17,18,18,19,19,20,20,21,21,22,22,23,23,24,24,25,25,26,26,27,27,28,28],"right_children":[2,4,6,8,10,12,14,16,18,20,22,24,26,28,-1,30,32,34,36,38,40,42,44,46,48,50,52,54,56,-1,-1,-1,-1,-1,-1,-1,-1,-1,-1,-1,-1,-1,-1,-1,-1,-1,-1,-1,-1,-1,-1,-1,-1,-1,-1,-1,-1],"split_conditions":[2.2740128E-2,-7.087443E-2,2.9023716E-1,-4.564914E-1,-5.265523E-2,8.3104837E-1,1.878217E0,-5.9273666E-1,-5.10453E-1,1.0119196E-1,-4.1831192E-1,1.2917688E0,-2.9007038E-1,-2.1727689E-1,-4.7758225E-2,6.7625266E-1,2.123304E-1,1.3297677E0,-1.0935282E0,3.816964E-1,5.886035E-1,6.200717E-1,5.9324903E0,-9.0074766E-1,-3.6987066E-1,6.592668E-1,3.2565728E-1,3.8450238E-1,7.0351136E-1,-3.8223676E-2,4.9091275E-3,1.6574679E-2,-1.5917046E-2,-4.3340378E-2,-1.5859833E-2,2.887255E-2,-1.8972555E-2,-9.345479E-3,2.5333716E-2,-3.5524633E-2,1.1396555E-2,4.4166814E-3,-3.071691E-2,1.4114211E-2,5.9061803E-2,3.0241251E-2,7.7402936E-3,6.960351E-2,3.0756338E-2,5.1802017E-2,1.0951363E-2,-5.6783776E-3,4.3319833E-2,-1.9854903E-2,2.053607E-2,2.0281042E-3,3.340132E-2],"split_indices":[44,45,123,123,67,67,123,47,117,123,117,47,3,117,0,103,41,114,0,45,33,102,74,123,25,107,5,48,44,0,0,0,0,0,0,0,0,0,0,0,0,0,0,0,0,0,0,0,0,0,0,0,0,0,0,0,0],"split_type":[0,0,0,0,0,0,0,0,0,0,0,0,0,0,0,0,0,0,0,0,0,0,0,0,0,0,0,0,0,0,0,0,0,0,0,0,0,0,0,0,0,0,0,0,0,0,0,0,0,0,0,0,0,0,0,0,0],"sum_hessian":[2.0525967E3,1.2521531E3,8.004436E2,6.570659E2,5.950872E2,5.4571826E2,2.5472533E2,1.5974344E2,4.9732245E2,2.7003186E2,3.2505533E2,4.0943613E2,1.3628215E2,2.3669826E2,1.802706E1,3.7242542E1,1.225009E2,1.6502397E2,3.322985E2,1.5966963E2,1.1036222E2,9.923697E1,2.2581837E2,3.6749695E2,4.1939156E1,9.310703E1,4.3175114E1,9.002668E1,1.4667159E2,2.5878105E1,1.1364439E1,8.297126E1,3.952964E1,1.3268007E2,3.23439E1,1.773859E1,3.145599E2,1.1487576E2,4.479387E1,8.773173E1,2.263049E1,7.0128044E1,2.9108927E1,2.1387772E2,1.19406595E1,8.633833E1,2.8115863E2,1.2482487E1,2.945667E1,8.28694E1,1.0237629E1,1.820787E1,2.4967243E1,7.3632484E1,1.6394196E1,1.1109257E2,3.5579018E1],"tree_param":{"num_deleted":"0","num_feature":"124","num_nodes":"57","size_leaf_vector":"1"}},{"base_weights":[5.0779553E-3,-2.313673E-1,2.1995571E-1,-7.9050744E-1,-1.7919819E-1,4.080927E-1,-4.0317267E-2,-6.24491E-3,-9.0841144E-1,-3.1586736E-2,-3.4616464E-1,2.4523722E-1,6.181751E-1,1.8272096E-2,-9.3275553E-1,-7.084875E-3,-1.0395842E0,3.3937946E-1,-1.0360522E-1,-3.8768962E-1,2.3430567E-2,2.076325E-1,5.974148E-2,6.9993716E-1,6.422588E-2,-2.9745477E-1,1.3382412E-1,-6.229044E-2,-2.126288E-2,-2.1896388E-2,-5.8205206E-2,-1.1552455E-2,2.956826E-2,-9.174141E-3,1.4676265E-2,-4.506874E-4,-2.3214834E-2,-2.9149202E-3,1.6677631E-2,2.4779355E-2,4.5690328E-2,-2.9936811E-2,2.0841477E-2,-5.351044E-3,-3.7327927E-2,1.2428093E-2,-2.0978628E-2],"categories":[],"categories_nodes":[],"categories_segments":[],"categories_sizes":[],"default_left":[0,0,0,0,0,0,0,0,0,0,0,0,0,0,0,0,0,0,0,0,0,0,0,0,0,0,0,0,0,0,0,0,0,0,0,0,0,0,0,0,0,0,0,0,0,0,0],"id":7,"left_children":[1,3,5,7,9,11,13,-1,15,17,19,21,23,25,27,-1,29,31,33,35,-1,37,-1,39,41,43,45,-1,-1,-1,-1,-1,-1,-1,-1,-1,-1,-1,-1,-1,-1,-1,-1,-1,-1,-1,-1],"loss_changes":[1.0478484E2,2.8398258E1,5.2972244E1,6.322315E0,2.2118176E1,2.1233986E1,2.3852936E1,0E0,6.8247147E0,1.2803133E1,1.4438332E1,1.2304859E1,1.224942E1,1.5602125E1,3.7675686E0,0E0,3.819847E0,1.1362475E1,1.279319E1,1.1605381E1,0E0,1.1540441E1,0E0,9.7967E0,8.737419E0,9.626249E0,1.9994661E1,0E0,0E0,0E0,0E0,0E0,0E0,0E0,0E0,0E0,0E0,0E0,0E0,0E0,0E0,0E0,0E0,0E0,0E0,0E0,0E0],"parents":[2147483647,0,0,1,1,2,2,3,3,4,4,5,5,6,6,8,8,9,9,10,10,11,11,12,12,13,13,14,14,16,16,17,17,18,18,19,19,21,21,23,23,24,24,25,25,26,26],"right_children":[2,4,6,8,10,12,14,-1,16,18,20,22,24,26,28,-1,30,32,34,36,-1,38,-1,40,42,44,46,-1,-1,-1,-1,-1,-1,-1,-1,-1,-1,-1,-1,-1,-1,-1,-1,-1,-1,-1,-1],"split_conditions":[-1.3380085E-1,-5.264227E-1,9.17397E-2,-8.5771644E-1,9.17397E-2,1.6804028E-1,1.774242E0,-6.24491E-3,-8.9382046E-1,-5.9608424E-1,1.7176853E0,9.944572E-1,9.599981E-1,-3.2031193E-1,6.2457836E-1,-7.084875E-3,-4.843074E-1,-3.770297E-1,3.6978665E-1,-7.4774796E-1,2.3430567E-2,4.8223544E-2,5.974148E-2,-7.617861E-2,3.0798153E-3,4.259616E-1,7.674902E-1,-6.229044E-2,-2.126288E-2,-2.1896388E-2,-5.8205206E-2,-1.1552455E-2,2.956826E-2,-9.174141E-3,1.4676265E-2,-4.506874E-4,-2.3214834E-2,-2.9149202E-3,1.6677631E-2,2.4779355E-2,4.5690328E-2,-2.9936811E-2,2.0841477E-2,-5.351044E-3,-3.7327927E-2,1.2428093E-2,-2.0978628E-2],"split_indices":[44,45,123,54,123,118,123,0,81,13,118,52,54,52,98,0,82,103,45,50,0,44,0,108,47,39,9,0,0,0,0,0,0,0,0,0,0,0,0,0,0,0,0,0,0,0,0],"split_type":[0,0,0,0,0,0,0,0,0,0,0,0,0,0,0,0,0,0,0,0,0,0,0,0,0,0,0,0,0,0,0,0,0,0,0,0,0,0,0,0,0,0,0,0,0,0,0],"sum_hessian":[2.0604375E3,9.8072925E2,1.0797083E3,8.232402E1,8.984052E2,6.265941E2,4.5311414E2,1.2825737E1,6.949828E1,4.777897E2,4.206155E2,3.5446036E2,2.7213373E2,4.2601346E2,2.7100687E1,1.0568318E1,5.8929966E1,7.684764E1,4.0094208E2,4.0083398E2,1.9781542E1,3.4223163E2,1.2228721E1,2.3674626E2,3.5387466E1,1.13487625E2,3.1252582E2,1.5739701E1,1.1360986E1,1.1017158E1,4.791281E1,2.3449797E1,5.339785E1,3.344597E2,6.648238E1,6.785305E1,3.3298093E2,1.0989245E2,2.3233919E2,1.2300297E2,1.137433E2,1.1945675E1,2.3441793E1,8.0720566E1,3.2767056E1,2.5946216E2,5.306368E1],"tree_param":{"num_deleted":"0","num_feature":"124","num_nodes":"47","size_leaf_vector":"1"}},{"base_weights":[-5.760746E-3,-1.7531055E-1,2.8287196E-1,-2.97472E-1,1.2836996E-1,4.2072803E-1,-4.400823E-2,-1.1142175E-1,-4.9427798E-1,-7.611316E-2,2.9772624E-1,3.4087518E-1,8.1793994E-1,-4.499786E-1,9.534696E-2,-6.074565E-1,-3.3304907E-2,-8.962658E-1,-4.0468094E-1,1.2661472E-1,-5.9349406E-1,8.658572E-1,2.0009682E-1,1.9790238E-1,5.219514E-1,3.1986773E-1,1.0124724E0,-2.5195485E-1,-5.368455E-2,3.88973E-1,-1.8153813E-1,3.6924419E-3,-4.011375E-2,-3.6985704E-3,5.1683612E-2,-5.5221952E-2,-2.0345068E-2,-3.1109456E-2,-1.0287881E-2,4.4584513E-2,-1.6842766E-4,-1.1054366E-2,-4.9006633E-2,1.6972147E-2,6.003321E-2,1.5730053E-2,-1.7180497E-2,7.7741267E-3,5.3149965E-2,3.4763474E-2,9.234043E-3,3.530475E-2,-1.08422665E-2,2.9424489E-2,6.4719304E-2,-4.1248567E-2,-8.7061396E-4,7.396646E-3,3.6779385E-2,-3.2624234E-2,1.7036913E-3],"categories":[],"categories_nodes":[],"categories_segments":[],"categories_sizes":[],"default_left":[0,0,0,0,0,0,0,0,0,0,0,0,0,0,0,0,0,0,0,0,0,0,0,0,0,0,0,0,0,0,0,0,0,0,0,0,0,0,0,0,0,0,0,0,0,0,0,0,0,0,0,0,0,0,0,0,0,0,0,0,0],"id":8,"left_children":[1,3,5,7,9,11,13,15,17,19,21,23,25,27,29,31,33,35,37,39,41,43,45,47,49,51,53,55,-1,57,59,-1,-1,-1,-1,-1,-1,-1,-1,-1,-1,-1,-1,-1,-1,-1,-1,-1,-1,-1,-1,-1,-1,-1,-1,-1,-1,-1,-1,-1,-1],"loss_changes":[1.00345795E2,4.7987297E1,3.424277E1,3.3641518E1,1.2896616E1,1.6540405E1,1.2848862E1,1.8339394E1,1.5623413E1,1.7811075E1,1.1005451E1,1.1383465E1,8.112476E0,6.7657366E0,1.3805803E1,8.687653E0,1.7857645E1,7.603119E0,1.5708733E1,1.2210053E1,6.5448303E0,4.6175747E0,1.1004904E1,8.938776E0,1.1244778E1,5.6845093E0,6.5798264E0,6.014246E0,0E0,6.684058E0,8.951253E0,0E0,0E0,0E0,0E0,0E0,0E0,0E0,0E0,0E0,0E0,0E0,0E0,0E0,0E0,0E0,0E0,0E0,0E0,0E0,0E0,0E0,0E0,0E0,0E0,0E0,0E0,0E0,0E0,0E0,0E0],"parents":[2147483647,0,0,1,1,2,2,3,3,4,4,5,5,6,6,7,7,8,8,9,9,10,10,11,11,12,12,13,13,14,14,15,15,16,16,17,17,18,18,19,19,20,20,21,21,22,22,23,23,24,24,25,25,26,26,27,27,29,29,30,30],"right_children":[2,4,6,8,10,12,14,16,18,20,22,24,26,28,30,32,34,36,38,40,42,44,46,48,50,52,54,56,-1,58,60,-1,-1,-1,-1,-1,-1,-1,-1,-1,-1,-1,-1,-1,-1,-1,-1,-1,-1,-1,-1,-1,-1,-1,-1,-1,-1,-1,-1,-1,-1],"split_conditions":[4.8223544E-2,1.2265915E-1,3.1859395E-1,7.283518E-2,-5.265523E-2,1.1256163E0,-4.1097417E-1,-4.9367088E-1,-5.597379E-1,-5.1553097E-2,-6.607572E-1,1.6804028E-1,-5.9983265E-2,7.8296095E-1,-2.568819E-1,-3.5643953E-1,1.714752E0,1.5216838E0,-2.0890042E-1,-1.2034668E0,3.973771E-1,-3.3766818E-1,5.692449E-1,1.1169816E0,-2.5443575E-1,2.1705997E-1,-4.3582925E-1,-8.882983E-1,-5.368455E-2,6.730172E-1,-2.7631778E-1,3.6924419E-3,-4.011375E-2,-3.6985704E-3,5.1683612E-2,-5.5221952E-2,-2.0345068E-2,-3.1109456E-2,-1.0287881E-2,4.4584513E-2,-1.6842766E-4,-1.1054366E-2,-4.9006633E-2,1.6972147E-2,6.003321E-2,1.5730053E-2,-1.7180497E-2,7.7741267E-3,5.3149965E-2,3.4763474E-2,9.234043E-3,3.530475E-2,-1.08422665E-2,2.9424489E-2,6.4719304E-2,-4.1248567E-2,-8.7061396E-4,7.396646E-3,3.6779385E-2,-3.2624234E-2,1.7036913E-3],"split_indices":[44,45,123,123,67,67,33,45,44,55,95,117,55,18,89,54,67,70,117,104,2,44,83,0,97,107,34,93,0,92,45,0,0,0,0,0,0,0,0,0,0,0,0,0,0,0,0,0,0,0,0,0,0,0,0,0,0,0,0,0,0],"split_type":[0,0,0,0,0,0,0,0,0,0,0,0,0,0,0,0,0,0,0,0,0,0,0,0,0,0,0,0,0,0,0,0,0,0,0,0,0,0,0,0,0,0,0,0,0,0,0,0,0,0,0,0,0,0,0,0,0,0,0,0,0],"sum_hessian":[2.0486902E3,1.2910409E3,7.576494E2,9.209289E2,3.70112E2,5.329189E2,2.2473051E2,4.7446674E2,4.4646216E2,1.6764961E2,2.0246237E2,4.4547372E2,8.744519E1,5.704251E1,1.67688E2,6.345798E1,4.1100876E2,7.952853E1,3.6693362E2,1.2085602E2,4.6793602E1,2.8385672E1,1.740767E2,2.5040558E2,1.9506815E2,2.5447897E1,6.199729E1,4.4483612E1,1.2558902E1,8.136252E1,8.6325485E1,1.413471E1,4.9323273E1,3.9690558E2,1.4103165E1,5.4768883E1,2.4759645E1,1.7402237E2,1.9291125E2,1.6811804E1,1.0404421E2,2.4767874E1,2.202573E1,1.1934181E1,1.645149E1,1.4429382E2,2.9782877E1,2.399357E2,1.0469875E1,1.2795573E2,6.711241E1,1.4723418E1,1.072448E1,2.613455E1,3.5862743E1,1.2064593E1,3.2419018E1,4.900154E1,3.2360973E1,2.6619633E1,5.9705856E1],"tree_param":{"num_deleted":"0","num_feature":"124","num_nodes":"61","size_leaf_vector":"1"}},{"base_weights":[-8.208138E-3,-1.847583E-1,2.1590275E-1,-7.8048366E-1,-1.3043584E-1,3.5119638E-1,-1.3922919E-3,-1.2816128E-2,-9.113415E-1,6.9804835E-1,-1.6142961E-1,2.5056857E-1,6.720873E-1,5.0936334E-2,-7.757381E-1,-8.271064E-3,-1.0407935E0,-8.124016E-3,1.0682843E0,-2.3953086E-1,1.4849068E-1,1.8986186E-1,7.8414214E-1,1.1324546E-3,7.667686E-1,-6.167823E-1,1.0360655E-1,-6.1514657E-2,-1.2614547E-2,-6.1892223E-2,-3.140185E-2,2.9867405E-2,6.88693E-2,-1.5985116E-2,4.5902864E-4,-8.538252E-3,1.6495287E-2,2.4368355E-2,4.737077E-3,5.9395846E-2,2.2836592E-2,9.045566E-3,4.380768E-2,-9.518846E-3,-5.1913112E-2,-8.673623E-3,1.1016544E-2],"categories":[],"categories_nodes":[],"categories_segments":[],"categories_sizes":[],"default_left":[0,0,0,0,0,0,0,0,0,0,0,0,0,0,0,0,0,0,0,0,0,0,0,0,0,0,0,0,0,0,0,0,0,0,0,0,0,0,0,0,0,0,0,0,0,0,0],"id":9,"left_children":[1,3,5,7,9,11,13,-1,15,17,19,21,23,25,27,-1,29,-1,31,33,35,37,39,-1,41,43,45,-1,-1,-1,-1,-1,-1,-1,-1,-1,-1,-1,-1,-1,-1,-1,-1,-1,-1,-1,-1],"loss_changes":[8.078482E1,3.6773933E1,2.647911E1,6.1729736E0,2.6974852E1,1.7648537E1,1.4126344E1,0E0,7.003502E0,1.232987E1,2.4524326E1,1.348947E1,7.994034E0,1.1434847E1,4.793894E0,0E0,4.2482147E0,0E0,2.8652477E0,1.615347E1,1.1883013E1,1.0712098E1,4.9551125E0,0E0,7.0840836E0,3.9480467E0,9.811187E0,0E0,0E0,0E0,0E0,0E0,0E0,0E0,0E0,0E0,0E0,0E0,0E0,0E0,0E0,0E0,0E0,0E0,0E0,0E0,0E0],"parents":[2147483647,0,0,1,1,2,2,3,3,4,4,5,5,6,6,8,8,9,9,10,10,11,11,12,12,13,13,14,14,16,16,18,18,19,19,20,20,21,21,22,22,24,24,25,25,26,26],"right_children":[2,4,6,8,10,12,14,-1,16,18,20,22,24,26,28,-1,30,-1,32,34,36,38,40,-1,42,44,46,-1,-1,-1,-1,-1,-1,-1,-1,-1,-1,-1,-1,-1,-1,-1,-1,-1,-1,-1,-1],"split_conditions":[-3.550768E-2,-5.264227E-1,1.4845327E-1,-4.700135E-1,-1.5340492E0,8.3104837E-1,1.774242E0,-1.2816128E-2,-8.818144E-1,-9.525391E-1,8.3104837E-1,1.2917688E0,-1.5255513E0,-1.1588244E0,1.9093056E-1,-8.271064E-3,3.2944685E-1,-8.124016E-3,-4.7694E-1,2.1198234E-1,-1.7508483E-1,-9.4800895E-1,-8.135044E-2,1.1324546E-3,4.8223544E-2,2.9149646E-1,-4.6857068E-1,-6.1514657E-2,-1.2614547E-2,-6.1892223E-2,-3.140185E-2,2.9867405E-2,6.88693E-2,-1.5985116E-2,4.5902864E-4,-8.538252E-3,1.6495287E-2,2.4368355E-2,4.737077E-3,5.9395846E-2,2.2836592E-2,9.045566E-3,4.380768E-2,-9.518846E-3,-5.1913112E-2,-8.673623E-3,1.1016544E-2],"split_indices":[44,45,123,82,123,67,123,0,121,95,67,47,35,33,95,0,20,0,104,45,45,123,25,0,44,50,117,0,0,0,0,0,0,0,0,0,0,0,0,0,0,0,0,0,0,0,0],"split_type":[0,0,0,0,0,0,0,0,0,0,0,0,0,0,0,0,0,0,0,0,0,0,0,0,0,0,0,0,0,0,0,0,0,0,0,0,0,0,0,0,0,0,0,0,0,0,0],"sum_hessian":[2.0398022E3,1.1413169E3,8.9848535E2,9.410538E1,1.0472115E3,5.536267E2,3.4485864E2,1.9543873E1,7.456151E1,3.687121E1,1.0103403E3,4.2305414E2,1.3057256E2,3.2378314E2,2.1075489E1,1.1477415E1,6.308409E1,1.1179068E1,2.569214E1,8.074174E2,2.0292287E2,3.8122406E2,4.1830074E1,1.690603E1,1.13666534E2,2.2751068E1,3.0103207E2,1.0455048E1,1.0620441E1,4.1182312E1,2.1901781E1,1.1471154E1,1.4220987E1,6.106823E2,1.9673514E2,7.3349434E1,1.2957344E2,9.110438E1,2.901197E2,1.7417055E1,2.4413021E1,1.844495E1,9.522158E1,1.2149018E1,1.060205E1,8.882865E1,2.1220343E2],"tree_param":{"num_deleted":"0","num_feature":"124","num_nodes":"47","size_leaf_vector":"1"}},{"base_weights":[-2.284033E-3,-1.1960863E-1,2.9120895E-1,-2.1105799E-1,1.4037152E-1,2.2359908E-1,7.110404E-1,-3.2941487E-1,5.1169177E-3,-1.0106994E-2,4.4581124E-1,1.7579983E-1,7.3673505E-1,1.24391876E-1,9.966209E-1,-2.5425276E-1,-5.8332235E-1,-2.1328917E-1,1.4670257E-1,-1.9891569E-1,2.5579673E-1,8.068888E-1,6.12287E-2,2.3773156E-1,-2.0767303E-1,1.2125536E-2,1.0344875E0,3.8925152E-2,-2.1853194E-2,6.1461574E-1,1.3046261E0,-2.720491E-2,-9.726496E-3,-1.3046689E-2,-3.9317306E-2,7.4672922E-3,-1.9396883E-2,-7.4586994E-3,1.3989585E-2,-2.3950431E-2,6.2268297E-3,-8.0178855E-3,2.4605785E-2,5.5777997E-2,2.5572919E-3,3.02873E-2,-1.1869677E-2,-1.70802E-2,1.4279711E-2,1.3568791E-2,-2.2124024E-2,7.000456E-2,2.5647854E-2,4.7643602E-2,3.400353E-3,7.749011E-2,4.0178906E-2],"categories":[],"categories_nodes":[],"categories_segments":[],"categories_sizes":[],"default_left":[0,0,0,0,0,0,0,0,0,0,0,0,0,0,0,0,0,0,0,0,0,0,0,0,0,0,0,0,0,0,0,0,0,0,0,0,0,0,0,0,0,0,0,0,0,0,0,0,0,0,0,0,0,0,0,0,0],"id":10,"left_children":[1,3,5,7,9,11,13,15,17,19,21,23,25,27,29,31,33,35,37,39,41,43,45,47,49,-1,51,-1,-1,53,55,-1,-1,-1,-1,-1,-1,-1,-1,-1,-1,-1,-1,-1,-1,-1,-1,-1,-1,-1,-1,-1,-1,-1,-1,-1,-1],"loss_changes":[7.041718E1,3.4785145E1,1.6322155E1,2.7715637E1,1.7543226E1,1.215576E1,1.3221863E1,1.3116318E1,1.1882556E1,1.2886005E1,1.7343296E1,1.1050389E1,5.876587E0,1.0495239E1,5.332878E0,9.198433E0,1.0076267E1,9.641828E0,9.25022E0,1.3716201E1,1.0577902E1,1.4920441E1,1.0289746E1,1.1166479E1,7.414939E0,0E0,4.06584E0,0E0,0E0,4.6473255E0,2.0489883E0,0E0,0E0,0E0,0E0,0E0,0E0,0E0,0E0,0E0,0E0,0E0,0E0,0E0,0E0,0E0,0E0,0E0,0E0,0E0,0E0,0E0,0E0,0E0,0E0,0E0,0E0],"parents":[2147483647,0,0,1,1,2,2,3,3,4,4,5,5,6,6,7,7,8,8,9,9,10,10,11,11,12,12,13,13,14,14,15,15,16,16,17,17,18,18,19,19,20,20,21,21,22,22,23,23,24,24,26,26,29,29,30,30],"right_children":[2,4,6,8,10,12,14,16,18,20,22,24,26,28,30,32,34,36,38,40,42,44,46,48,50,-1,52,-1,-1,54,56,-1,-1,-1,-1,-1,-1,-1,-1,-1,-1,-1,-1,-1,-1,-1,-1,-1,-1,-1,-1,-1,-1,-1,-1,-1,-1],"split_conditions":[1.6107866E-1,1.5838842E-1,1.1148865E0,2.015461E-1,-1.3380085E-1,2.1448848E0,-4.9370006E-1,9.023658E-1,-2.852501E-1,-4.2299047E-1,2.2358193E-1,9.975488E-1,-1.813055E-1,-4.018832E-2,3.1456225E-2,-5.4881644E-1,-5.5627906E-1,-3.5628942E-1,-5.1897115E-1,4.3231288E-1,-6.0040516E-1,6.4975435E-1,-4.8226938E-1,-1.1889462E0,-5.867646E-1,1.2125536E-2,1.3441506E-1,3.8925152E-2,-2.1853194E-2,3.7741136E-2,1.8904285E-1,-2.720491E-2,-9.726496E-3,-1.3046689E-2,-3.9317306E-2,7.4672922E-3,-1.9396883E-2,-7.4586994E-3,1.3989585E-2,-2.3950431E-2,6.2268297E-3,-8.0178855E-3,2.4605785E-2,5.5777997E-2,2.5572919E-3,3.02873E-2,-1.1869677E-2,-1.70802E-2,1.4279711E-2,1.3568791E-2,-2.2124024E-2,7.000456E-2,2.5647854E-2,4.7643602E-2,3.400353E-3,7.749011E-2,4.0178906E-2],"split_indices":[44,45,44,118,44,118,118,29,45,114,14,23,52,93,68,44,16,6,92,45,108,24,23,118,89,0,92,0,0,115,104,0,0,0,0,0,0,0,0,0,0,0,0,0,0,0,0,0,0,0,0,0,0,0,0,0,0],"split_type":[0,0,0,0,0,0,0,0,0,0,0,0,0,0,0,0,0,0,0,0,0,0,0,0,0,0,0,0,0,0,0,0,0,0,0,0,0,0,0,0,0,0,0,0,0,0,0,0,0,0,0,0,0,0,0,0,0],"sum_hessian":[2.0434797E3,1.460553E3,5.829267E2,1.0809102E3,3.7964288E2,5.0359784E2,7.9328896E1,6.9844604E2,3.8246408E2,2.5476793E2,1.2487495E2,4.6209097E2,4.1506866E1,2.6558117E1,5.2770775E1,5.407635E2,1.5768253E2,1.4994711E2,2.3251695E2,1.4934874E2,1.0541919E2,6.370519E1,6.1169758E1,3.9839078E2,6.3700176E1,1.6413403E1,2.5093464E1,1.2170586E1,1.4387531E1,2.5037731E1,2.7733044E1,9.071636E1,4.5004715E2,6.2003227E1,9.567929E1,4.860253E1,1.0134459E2,7.186914E1,1.6064781E2,7.9947014E1,6.9401726E1,3.814487E1,6.7274315E1,4.4799232E1,1.8905958E1,2.141938E1,3.9750374E1,2.9774158E1,3.6861664E2,2.076147E1,4.29387E1,1.3648944E1,1.1444519E1,1.4894451E1,1.014328E1,1.7081772E1,1.0651272E1],"tree_param":{"num_deleted":"0","num_feature":"124","num_nodes":"57","size_leaf_vector":"1"}},{"base_weights":[1.2640688E-2,1.6459265E-1,-1.8649648E-1,6.972185E-2,4.3644693E-1,-1.3940373E-1,-8.475953E-1,6.5009214E-2,5.0171383E-2,2.3552936E-1,6.7231536E-1,-3.291794E-1,1.6646113E-2,-5.329873E-1,-1.1293994E0,-1.4396042E-1,1.6237453E-1,3.330101E-1,-2.2110356E-2,-3.2517004E-3,7.372221E-1,-4.5496008E-1,-5.1642973E-2,-2.869839E-2,9.1520524E-1,-7.8455545E-3,-5.4587938E-2,-6.911348E-2,-4.2719003E-2,-1.7090818E-3,-2.0225268E-2,-1.999807E-3,1.4688954E-2,2.000127E-2,-2.4645818E-2,4.7892876E-2,2.4279801E-2,-2.7141456E-2,-1.1889132E-3,-3.231423E-2,6.088819E-3,-4.566306E-3,2.4638621E-2,6.828944E-2,2.0360595E-2],"categories":[],"categories_nodes":[],"categories_segments":[],"categories_sizes":[],"default_left":[0,0,0,0,0,0,0,0,0,0,0,0,0,0,0,0,0,0,0,0,0,0,0,0,0,0,0,0,0,0,0,0,0,0,0,0,0,0,0,0,0,0,0,0,0],"id":11,"left_children":[1,3,5,7,9,11,13,-1,15,17,19,21,23,25,27,29,31,33,-1,-1,35,37,39,41,43,-1,-1,-1,-1,-1,-1,-1,-1,-1,-1,-1,-1,-1,-1,-1,-1,-1,-1,-1,-1],"loss_changes":[6.223412E1,3.001285E1,2.7488905E1,2.0642942E1,1.4033981E1,2.4678288E1,4.4483414E0,0E0,1.8627428E1,1.1005823E1,6.713501E0,1.3044647E1,1.874646E1,5.979184E0,6.80027E-1,8.895024E0,1.4450302E1,8.187864E0,0E0,0E0,6.43692E0,9.714024E0,1.2358994E1,1.424958E1,4.3258915E0,0E0,0E0,0E0,0E0,0E0,0E0,0E0,0E0,0E0,0E0,0E0,0E0,0E0,0E0,0E0,0E0,0E0,0E0,0E0,0E0],"parents":[2147483647,0,0,1,1,2,2,3,3,4,4,5,5,6,6,8,8,9,9,10,10,11,11,12,12,13,13,14,14,15,15,16,16,17,17,20,20,21,21,22,22,23,23,24,24],"right_children":[2,4,6,8,10,12,14,-1,16,18,20,22,24,26,28,30,32,34,-1,-1,36,38,40,42,44,-1,-1,-1,-1,-1,-1,-1,-1,-1,-1,-1,-1,-1,-1,-1,-1,-1,-1,-1,-1],"split_conditions":[1.1064422E-1,4.695928E-1,1.774242E0,-2.6399636E0,8.395988E-2,-1.6912994E-1,1.6707756E-1,6.5009214E-2,-2.1379153E-1,1.0958581E0,-1.5254946E0,1.5135993E-1,1.6165627E0,4.819788E-1,8.480029E-2,5.264788E-1,-2.8269643E-1,7.857596E-1,-2.2110356E-2,-3.2517004E-3,-4.9189997E-1,7.45994E-1,-6.360999E-1,7.202164E-1,1.06506005E-1,-7.8455545E-3,-5.4587938E-2,-6.911348E-2,-4.2719003E-2,-1.7090818E-3,-2.0225268E-2,-1.999807E-3,1.4688954E-2,2.000127E-2,-2.4645818E-2,4.7892876E-2,2.4279801E-2,-2.7141456E-2,-1.1889132E-3,-3.231423E-2,6.088819E-3,-4.566306E-3,2.4638621E-2,6.828944E-2,2.0360595E-2],"split_indices":[123,117,123,123,47,45,91,0,45,54,67,47,67,80,106,29,47,22,0,0,49,81,117,47,24,0,0,0,0,0,0,0,0,0,0,0,0,0,0,0,0,0,0,0,0],"split_type":[0,0,0,0,0,0,0,0,0,0,0,0,0,0,0,0,0,0,0,0,0,0,0,0,0,0,0,0,0,0,0,0,0,0,0,0,0,0,0,0,0,0,0,0,0],"sum_hessian":[2.054753E3,1.1658356E3,8.8891724E2,8.6544116E2,3.0039447E2,8.310783E2,5.7838963E1,1.2431188E1,8.5300995E2,1.6352394E2,1.3687053E2,3.748032E2,4.5627512E2,2.8862675E1,2.8976286E1,3.1200696E2,5.41003E2,1.4353508E2,1.9988863E1,1.0948733E1,1.2592179E2,2.5722717E2,1.1757603E2,4.3517157E2,2.110354E1,1.8124153E1,1.07385235E1,1.2809105E1,1.6167181E1,2.205815E2,9.142547E1,2.1296268E2,3.280403E2,1.3335172E2,1.0183355E1,6.538534E1,6.053645E1,2.1327397E2,4.39532E1,2.6061853E1,9.1514175E1,3.894196E2,4.5751976E1,1.0184539E1,1.0919002E1],"tree_param":{"num_deleted":"0","num_feature":"124","num_nodes":"45","size_leaf_vector":"1"}},{"base_weights":[3.6341657E-3,-1.7763329E-1,1.2648776E-1,-4.119202E-1,-4.7990173E-2,2.0551382E-1,-1.8144186E-1,-5.428571E-1,-3.1303514E-2,-1.4430371E-1,3.0338487E-1,4.1320017E-1,1.1921462E-1,-3.9556062E-1,7.311922E-2,-2.9061211E-2,-6.4090055E-1,-4.3509504E-1,2.3422202E-1,1.6598935E-1,-2.446519E-1,6.4671166E-2,7.3958004E-1,3.6218685E-1,6.02653E-2,-2.3694849E-1,1.9914927E-1,-6.029696E-1,7.6810576E-2,3.9372188E-1,-2.8889623E-1,1.833775E-2,-2.1692913E-2,-4.8853543E-2,-2.6806805E-2,-4.5222543E-2,-1.3686338E-3,2.4144944E-2,-2.3766395E-2,1.5308787E-2,-3.2389116E-2,-2.1234702E-2,-4.1117677E-3,-1.6113719E-2,1.7984355E-2,4.3389085E-3,5.1347464E-2,-1.2065953E-3,2.354203E-2,3.677273E-3,-2.111947E-2,3.445942E-2,7.4524023E-3,-1.5279196E-2,-4.5239765E-2,-3.1810302E-2,2.7830333E-2,4.8549782E-2,7.2481753E-3,-2.7111659E-2,1.3095363E-2],"categories":[],"categories_nodes":[],"categories_segments":[],"categories_sizes":[],"default_left":[0,0,0,0,0,0,0,0,0,0,0,0,0,0,0,0,0,0,0,0,0,0,0,0,0,0,0,0,0,0,0,0,0,0,0,0,0,0,0,0,0,0,0,0,0,0,0,0,0,0,0,0,0,0,0,0,0,0,0,0,0],"id":12,"left_children":[1,3,5,7,9,11,13,15,17,19,21,23,25,27,29,31,33,35,37,39,41,43,45,47,-1,49,51,53,55,57,59,-1,-1,-1,-1,-1,-1,-1,-1,-1,-1,-1,-1,-1,-1,-1,-1,-1,-1,-1,-1,-1,-1,-1,-1,-1,-1,-1,-1,-1,-1],"loss_changes":[4.589389E1,2.5213667E1,2.9941734E1,1.4681129E1,1.8207993E1,1.7436588E1,1.3754417E1,1.0998589E1,8.382039E0,1.3205031E1,1.1915995E1,1.09841E1,1.9774605E1,1.3503733E1,1.3518286E1,6.0093246E0,5.8250275E0,5.8263273E0,8.519547E0,1.1983562E1,9.269613E0,8.795666E0,7.428688E0,1.1419731E1,0E0,7.3934503E0,1.3729177E1,8.15958E0,1.4880485E1,8.618203E0,7.793235E0,0E0,0E0,0E0,0E0,0E0,0E0,0E0,0E0,0E0,0E0,0E0,0E0,0E0,0E0,0E0,0E0,0E0,0E0,0E0,0E0,0E0,0E0,0E0,0E0,0E0,0E0,0E0,0E0,0E0,0E0],"parents":[2147483647,0,0,1,1,2,2,3,3,4,4,5,5,6,6,7,7,8,8,9,9,10,10,11,11,12,12,13,13,14,14,15,15,16,16,17,17,18,18,19,19,20,20,21,21,22,22,23,23,25,25,26,26,27,27,28,28,29,29,30,30],"right_children":[2,4,6,8,10,12,14,16,18,20,22,24,26,28,30,32,34,36,38,40,42,44,46,48,-1,50,52,54,56,58,60,-1,-1,-1,-1,-1,-1,-1,-1,-1,-1,-1,-1,-1,-1,-1,-1,-1,-1,-1,-1,-1,-1,-1,-1,-1,-1,-1,-1,-1,-1],"split_conditions":[-2.530404E-1,-5.10453E-1,6.7098075E-1,1.6136587E-1,8.3104837E-1,-3.9878163E-1,1.6804028E-1,-7.159249E-1,-6.9070286E-1,-4.4910526E-1,5.5213783E-2,1.714752E0,-3.6564097E-1,3.4010193E-1,-4.1779006E-1,-1.1762002E-1,-2.7105147E-1,-3.0434422E-2,6.8644553E-1,1.0583175E0,-8.576163E-2,1.823729E-1,-4.7014147E-1,-8.640648E-1,6.02653E-2,-5.295929E-1,-1.4688148E0,-8.7335855E-2,-1.8939798E-1,-3.699562E-1,3.9785075E-1,1.833775E-2,-2.1692913E-2,-4.8853543E-2,-2.6806805E-2,-4.5222543E-2,-1.3686338E-3,2.4144944E-2,-2.3766395E-2,1.5308787E-2,-3.2389116E-2,-2.1234702E-2,-4.1117677E-3,-1.6113719E-2,1.7984355E-2,4.3389085E-3,5.1347464E-2,-1.2065953E-3,2.354203E-2,3.677273E-3,-2.111947E-2,3.445942E-2,7.4524023E-3,-1.5279196E-2,-4.5239765E-2,-3.1810302E-2,2.7830333E-2,4.8549782E-2,7.2481753E-3,-2.7111659E-2,1.3095363E-2],"split_indices":[47,117,8,45,67,2,117,23,114,6,48,67,45,67,90,6,91,105,78,50,45,105,12,90,0,46,23,115,76,82,106,0,0,0,0,0,0,0,0,0,0,0,0,0,0,0,0,0,0,0,0,0,0,0,0,0,0,0,0,0,0],"split_type":[0,0,0,0,0,0,0,0,0,0,0,0,0,0,0,0,0,0,0,0,0,0,0,0,0,0,0,0,0,0,0,0,0,0,0,0,0,0,0,0,0,0,0,0,0,0,0,0,0,0,0,0,0,0,0,0,0,0,0,0,0],"sum_hessian":[2.0590742E3,8.312805E2,1.2277938E3,2.950774E2,5.362031E2,9.775706E2,2.502232E2,2.1903696E2,7.604045E1,4.215329E2,1.1467022E2,2.855129E2,6.920577E2,1.3581999E2,1.1440323E2,3.54705E1,1.8356645E2,3.0062153E1,4.5978294E1,1.0260641E2,3.1892648E2,7.500192E1,3.96683E1,2.6972552E2,1.5787405E1,1.2626155E2,5.6579614E2,9.4334694E1,4.1485294E1,6.0771946E1,5.363128E1,1.7856806E1,1.7613695E1,4.140961E1,1.4215685E2,1.3294463E1,1.6767689E1,3.4387005E1,1.1591292E1,8.816508E1,1.4441333E1,1.5019817E2,1.6872833E2,3.225916E1,4.274276E1,1.2629189E1,2.7039112E1,5.917744E1,2.1054807E2,4.7235943E1,7.9025604E1,5.111263E1,5.1468353E2,4.8697414E1,4.563728E1,1.647205E1,2.5013243E1,1.7305975E1,4.346597E1,3.687026E1,1.676102E1],"tree_param":{"num_deleted":"0","num_feature":"124","num_nodes":"61","size_leaf_vector":"1"}},{"base_weights":[-8.84948E-3,-1.6029468E-1,1.7398155E-1,5.2484557E-2,-2.616046E-1,-7.737411E-2,2.67449E-1,6.746894E-1,-4.913505E-3,-6.5992635E-1,-1.8739164E-1,1.7332226E-1,-2.6190892E-1,1.4364283E-1,5.4263616E-1,6.7874053E-3,5.033154E-2,-2.811736E-1,1.8701474E-1,-7.3829794E-1,6.3840607E-3,-2.6782057E-1,1.24406725E-1,7.343519E-1,7.150228E-3,2.5032535E-2,-5.211458E-1,2.553578E-1,-8.519983E-2,8.32371E-1,2.6659682E-1,2.29171E-2,-1.8091349E-2,4.2170193E-2,4.5331563E-3,-8.628784E-3,-4.1152246E-2,-1.6076865E-2,1.1030478E-2,1.161212E-2,-3.0359019E-2,8.3062155E-3,5.9873965E-2,3.157812E-2,-6.0703875E-3,-2.4814375E-2,1.648111E-2,1.8915933E-2,-3.3292666E-2,1.99462E-2,-7.086978E-4,-9.178753E-3,3.0103872E-2,3.5522237E-2,7.681603E-2,2.0835094E-2,-9.323728E-3],"categories":[],"categories_nodes":[],"categories_segments":[],"categories_sizes":[],"default_left":[0,0,0,0,0,0,0,0,0,0,0,0,0,0,0,0,0,0,0,0,0,0,0,0,0,0,0,0,0,0,0,0,0,0,0,0,0,0,0,0,0,0,0,0,0,0,0,0,0,0,0,0,0,0,0,0,0],"id":13,"left_children":[1,3,5,7,9,11,13,15,17,19,21,23,25,27,29,-1,-1,31,33,35,-1,37,39,41,43,45,47,49,51,53,55,-1,-1,-1,-1,-1,-1,-1,-1,-1,-1,-1,-1,-1,-1,-1,-1,-1,-1,-1,-1,-1,-1,-1,-1,-1,-1],"loss_changes":[5.6532455E1,2.4113352E1,2.1765333E1,1.2955794E1,2.2174717E1,1.1672868E1,2.2836998E1,5.2282248E0,1.7621664E1,7.458214E0,1.609437E1,9.882554E0,1.0870212E1,1.1974771E1,1.6360897E1,0E0,0E0,8.290184E0,1.2213425E1,4.9298935E0,0E0,1.344194E1,1.0488762E1,6.0517254E0,6.837418E0,1.1219487E1,1.0245525E1,1.22051735E1,1.0454488E1,7.3684387E0,7.4817967E0,0E0,0E0,0E0,0E0,0E0,0E0,0E0,0E0,0E0,0E0,0E0,0E0,0E0,0E0,0E0,0E0,0E0,0E0,0E0,0E0,0E0,0E0,0E0,0E0,0E0,0E0],"parents":[2147483647,0,0,1,1,2,2,3,3,4,4,5,5,6,6,7,7,8,8,9,9,10,10,11,11,12,12,13,13,14,14,17,17,18,18,19,19,21,21,22,22,23,23,24,24,25,25,26,26,27,27,28,28,29,29,30,30],"right_children":[2,4,6,8,10,12,14,16,18,20,22,24,26,28,30,-1,-1,32,34,36,-1,38,40,42,44,46,48,50,52,54,56,-1,-1,-1,-1,-1,-1,-1,-1,-1,-1,-1,-1,-1,-1,-1,-1,-1,-1,-1,-1,-1,-1,-1,-1,-1,-1],"split_conditions":[-4.2788655E-2,-4.0438423E-1,-3.472231E-1,-1.5813104E0,-1.3363604E-1,-2.3452537E-2,9.883963E-2,-5.897832E-1,-4.141184E-1,1.3506002E0,8.3104837E-1,-7.629661E-1,-3.391815E-1,2.7122915E-1,-1.2342422E-2,6.7874053E-3,5.033154E-2,-1.1015929E0,-3.7407306E-1,-1.0540502E0,6.3840607E-3,6.672129E-1,1.1790613E0,6.805303E-2,-9.6271473E-1,-2.5880978E-1,-1.3099369E0,8.84126E-2,9.000977E-1,1.4208318E-1,3.374985E-1,2.29171E-2,-1.8091349E-2,4.2170193E-2,4.5331563E-3,-8.628784E-3,-4.1152246E-2,-1.6076865E-2,1.1030478E-2,1.161212E-2,-3.0359019E-2,8.3062155E-3,5.9873965E-2,3.157812E-2,-6.0703875E-3,-2.4814375E-2,1.648111E-2,1.8915933E-2,-3.3292666E-2,1.99462E-2,-7.086978E-4,-9.178753E-3,3.0103872E-2,3.5522237E-2,7.681603E-2,2.0835094E-2,-9.323728E-3],"split_indices":[44,23,67,123,46,55,45,95,44,78,67,107,18,38,14,0,0,107,44,37,0,52,26,121,106,48,103,95,44,3,123,0,0,0,0,0,0,0,0,0,0,0,0,0,0,0,0,0,0,0,0,0,0,0,0,0,0],"split_type":[0,0,0,0,0,0,0,0,0,0,0,0,0,0,0,0,0,0,0,0,0,0,0,0,0,0,0,0,0,0,0,0,0,0,0,0,0,0,0,0,0,0,0,0,0,0,0,0,0,0,0,0,0,0,0,0,0],"sum_hessian":[2.0397446E3,1.1159966E3,9.2374805E2,3.5980344E2,7.561932E2,2.5014699E2,6.73601E2,2.9627195E1,3.3017624E2,1.1731123E2,6.3888196E2,1.0585648E2,1.4429051E2,4.6588547E2,2.0771556E2,1.194441E1,1.7682785E1,1.353748E2,1.9480144E2,1.0686692E2,1.0444316E1,5.0824185E2,1.3064009E2,2.327031E1,8.2586174E1,6.873145E1,7.555906E1,3.132743E2,1.5261118E2,1.0018367E2,1.0753189E2,1.2729994E1,1.2264481E2,2.38095E1,1.7099194E2,1.4472576E1,9.239434E1,4.5837677E2,4.9865078E1,1.14571526E2,1.6068562E1,1.1156556E1,1.2113753E1,1.3565089E1,6.902108E1,2.499449E1,4.373696E1,1.0151919E1,6.540714E1,2.0432922E2,1.0894508E2,1.3427042E2,1.834075E1,8.722697E1,1.2956701E1,8.099785E1,2.6534044E1],"tree_param":{"num_deleted":"0","num_feature":"124","num_nodes":"57","size_leaf_vector":"1"}},{"base_weights":[-5.3486354E-3,1.3901484E-1,-1.9317739E-1,3.8146853E-2,3.506401E-1,-1.5228386E-1,-8.1896245E-1,5.1041152E-2,1.3286989E-2,3.4030765E-2,4.3675956E-1,-3.9263824E-1,-3.5256803E-2,-4.505683E-1,-1.0690851E0,-1.3043387E-2,7.53389E-1,-1.5394539E-1,4.6948838E-1,5.1860815E-1,2.1521341E-2,-5.518963E-1,-9.0620145E-2,-1.3996772E-1,2.5587633E-1,-5.1701028E-2,3.0613733E-3,-6.528975E-2,-2.7061224E-2,-4.152078E-3,1.2623032E-2,5.3638972E-2,1.2278232E-2,-1.7624713E-2,3.4829404E-2,-4.9551553E-3,4.611265E-2,3.185903E-2,3.7603867E-3,2.2598831E-2,-1.7697677E-2,-3.3385284E-2,-5.761852E-3,3.0903224E-2,-1.3223879E-2,1.0514633E-2,-1.1999292E-2,6.652529E-4,2.86291E-2],"categories":[],"categories_nodes":[],"categories_segments":[],"categories_sizes":[],"default_left":[0,0,0,0,0,0,0,0,0,0,0,0,0,0,0,0,0,0,0,0,0,0,0,0,0,0,0,0,0,0,0,0,0,0,0,0,0,0,0,0,0,0,0,0,0,0,0,0,0],"id":14,"left_children":[1,3,5,7,9,11,13,-1,15,17,19,21,23,25,27,29,31,33,35,37,39,41,43,45,47,-1,-1,-1,-1,-1,-1,-1,-1,-1,-1,-1,-1,-1,-1,-1,-1,-1,-1,-1,-1,-1,-1,-1,-1],"loss_changes":[5.581911E1,2.4785395E1,2.2676785E1,1.9168032E1,1.0166653E1,2.3607397E1,4.3889427E0,0E0,1.5109609E1,6.7793417E0,9.946804E0,1.311824E1,1.7314856E1,7.307133E0,3.0539284E0,1.3857539E1,3.925068E0,9.930672E0,6.60883E0,1.2805672E1,8.210619E0,8.932762E0,1.20051565E1,1.4698771E1,1.1467859E1,0E0,0E0,0E0,0E0,0E0,0E0,0E0,0E0,0E0,0E0,0E0,0E0,0E0,0E0,0E0,0E0,0E0,0E0,0E0,0E0,0E0,0E0,0E0,0E0],"parents":[2147483647,0,0,1,1,2,2,3,3,4,4,5,5,6,6,8,8,9,9,10,10,11,11,12,12,13,13,14,14,15,15,16,16,17,17,18,18,19,19,20,20,21,21,22,22,23,23,24,24],"right_children":[2,4,6,8,10,12,14,-1,16,18,20,22,24,26,28,30,32,34,36,38,40,42,44,46,48,-1,-1,-1,-1,-1,-1,-1,-1,-1,-1,-1,-1,-1,-1,-1,-1,-1,-1,-1,-1,-1,-1,-1,-1],"split_conditions":[1.1064422E-1,3.27193E-1,1.774242E0,-2.2159224E0,-4.318837E-1,-2.7976838E-1,-2.3386519E-1,5.1041152E-2,9.7135967E-1,1.6559826E-2,1.1276962E0,4.8684485E-2,7.328591E-1,-1.693085E-1,6.9074595E-1,4.3713617E-1,1.7415571E-1,7.6420987E-1,-3.461188E-1,1.5176582E0,-3.964158E-1,7.689002E-1,-5.7029146E-1,-5.124069E-1,-3.320693E-1,-5.1701028E-2,3.0613733E-3,-6.528975E-2,-2.7061224E-2,-4.152078E-3,1.2623032E-2,5.3638972E-2,1.2278232E-2,-1.7624713E-2,3.4829404E-2,-4.9551553E-3,4.611265E-2,3.185903E-2,3.7603867E-3,2.2598831E-2,-1.7697677E-2,-3.3385284E-2,-5.761852E-3,3.0903224E-2,-1.3223879E-2,1.0514633E-2,-1.1999292E-2,6.652529E-4,2.86291E-2],"split_indices":[123,117,123,8,51,52,76,0,46,47,89,51,67,13,105,47,80,104,37,113,49,34,83,17,114,0,0,0,0,0,0,0,0,0,0,0,0,0,0,0,0,0,0,0,0,0,0,0,0],"split_type":[0,0,0,0,0,0,0,0,0,0,0,0,0,0,0,0,0,0,0,0,0,0,0,0,0,0,0,0,0,0,0,0,0,0,0,0,0,0,0,0,0,0,0,0,0,0,0,0,0],"sum_hessian":[2.0563696E3,1.1625624E3,8.938074E2,7.884245E2,3.7413785E2,8.40299E2,5.3508347E1,1.8365759E1,7.700587E2,8.055224E1,2.9358563E2,2.741108E2,5.6618823E2,2.2932825E1,3.057552E1,7.4442194E2,2.5636806E1,5.6555485E1,2.3996756E1,2.4483571E2,4.874992E1,1.787141E2,9.539673E1,4.170514E2,1.4913683E2,1.0330717E1,1.2602108E1,1.9961115E1,1.0614405E1,5.899499E2,1.5447206E2,1.49345E1,1.0702307E1,4.6421875E1,1.0133608E1,1.0886059E1,1.3110698E1,1.926543E2,5.2181408E1,2.2741262E1,2.600866E1,1.4065254E2,3.8061543E1,1.8176159E1,7.7220566E1,9.2170555E1,3.2488086E2,8.522163E1,6.39152E1],"tree_param":{"num_deleted":"0","num_feature":"124","num_nodes":"49","size_leaf_vector":"1"}},{"base_weights":[8.331356E-3,1.4491975E-1,-1.6933624E-1,-4.630938E-3,3.6037666E-1,-2.0523567E-1,5.923707E-1,6.249446E-1,-4.5389783E-2,-2.9581153E-1,4.0281263E-1,-4.3928695E-1,-9.321703E-2,6.1146653E-4,1.079199E0,9.622517E-1,2.462981E-3,-1.0729161E-1,3.2902256E-1,-3.9585296E-2,1.037627E-2,1.4603604E-1,5.000162E-1,-3.8528767E-1,-6.616521E-2,-1.4376421E-1,4.4090006E-1,3.3842985E-2,6.8483874E-2,2.6024355E-2,6.1098974E-2,5.9759016E-3,-9.798398E-3,3.9399654E-2,6.9572986E-3,2.1777395E-3,4.4832192E-2,6.4495015E-3,2.9402776E-2,-2.5184283E-2,6.580045E-4,-4.8364694E-3,-3.4166273E-2,9.299967E-3,5.0061114E-2],"categories":[],"categories_nodes":[],"categories_segments":[],"categories_sizes":[],"default_left":[0,0,0,0,0,0,0,0,0,0,0,0,0,0,0,0,0,0,0,0,0,0,0,0,0,0,0,0,0,0,0,0,0,0,0,0,0,0,0,0,0,0,0,0,0],"id":15,"left_children":[1,3,5,7,9,11,13,15,17,19,21,23,25,-1,27,29,-1,31,33,-1,-1,35,37,39,-1,41,43,-1,-1,-1,-1,-1,-1,-1,-1,-1,-1,-1,-1,-1,-1,-1,-1,-1,-1],"loss_changes":[4.934109E1,3.7087357E1,2.4241264E1,1.740554E1,1.3256512E1,2.204897E1,1.1145481E1,7.8578796E0,1.4828096E1,7.4780083E0,1.0927826E1,1.2342731E1,1.5496978E1,0E0,1.3912067E0,2.153988E0,0E0,1.1083176E1,7.702379E0,0E0,0E0,9.361981E0,1.0334564E1,1.2256767E1,0E0,1.3158187E1,6.778166E0,0E0,0E0,0E0,0E0,0E0,0E0,0E0,0E0,0E0,0E0,0E0,0E0,0E0,0E0,0E0,0E0,0E0,0E0],"parents":[2147483647,0,0,1,1,2,2,3,3,4,4,5,5,6,6,7,7,8,8,9,9,10,10,11,11,12,12,14,14,15,15,17,17,18,18,21,21,22,22,23,23,25,25,26,26],"right_children":[2,4,6,8,10,12,14,16,18,20,22,24,26,-1,28,30,-1,32,34,-1,-1,36,38,40,-1,42,44,-1,-1,-1,-1,-1,-1,-1,-1,-1,-1,-1,-1,-1,-1,-1,-1,-1,-1],"split_conditions":[1.1064422E-1,2.2740128E-2,9.820194E-1,-1.5813104E0,-1.3466002E0,-4.1831192E-1,1.6351867E-2,3.9698365E-1,3.816964E-1,1.7641672E-1,-3.472231E-1,1.774242E0,7.217138E-1,6.1146653E-4,-9.15643E-2,1.1523198E-1,2.462981E-3,-3.9455128E-1,-2.9680273E-1,-3.9585296E-2,1.037627E-2,7.73556E-1,-4.3762875E-1,9.596785E-1,-6.616521E-2,1.0556837E0,3.7332672E-1,3.3842985E-2,6.8483874E-2,2.6024355E-2,6.1098974E-2,5.9759016E-3,-9.798398E-3,3.9399654E-2,6.9572986E-3,2.1777395E-3,4.4832192E-2,6.4495015E-3,2.9402776E-2,-2.5184283E-2,6.580045E-4,-4.8364694E-3,-3.4166273E-2,9.299967E-3,5.0061114E-2],"split_indices":[123,44,48,123,94,118,109,111,45,118,67,123,44,0,78,38,0,13,83,0,0,82,48,26,0,76,82,0,0,0,0,0,0,0,0,0,0,0,0,0,0,0,0,0,0],"split_type":[0,0,0,0,0,0,0,0,0,0,0,0,0,0,0,0,0,0,0,0,0,0,0,0,0,0,0,0,0,0,0,0,0,0,0,0,0,0,0,0,0,0,0,0,0],"sum_hessian":[2.0313204E3,1.1488486E3,8.824718E2,6.784467E2,4.7040195E2,8.435757E2,3.8896084E1,4.023144E1,6.382153E2,2.8067442E1,4.423345E2,2.7182062E2,5.717551E2,1.8308647E1,2.0587437E1,2.4834904E1,1.5396538E1,5.4851025E2,8.9705025E1,1.3949734E1,1.4117707E1,1.2243547E2,3.1989902E2,2.5763235E2,1.418825E1,5.2316266E2,4.8592426E1,1.0172295E1,1.0415143E1,1.0449904E1,1.4384999E1,1.5375975E2,3.9475052E2,2.517506E1,6.452996E1,1.0877549E2,1.3659979E1,6.2040634E1,2.578584E2,1.9860432E2,5.9028038E1,4.824693E2,4.0693375E1,3.4436886E1,1.415554E1],"tree_param":{"num_deleted":"0","num_feature":"124","num_nodes":"45","size_leaf_vector":"1"}},{"base_weights":[-1.5286327E-2,-2.3135206E-1,1.149558E-1,5.7649606E-1,-2.614593E-1,-1.588649E-1,2.0783864E-1,4.537235E-3,6.1614532E-2,2.3272088E-1,-2.9808283E-1,3.633362E-2,-2.0652846E-1,7.150907E-2,3.9088455E-1,8.394291E-1,-4.866913E-1,-3.7820438E-1,-7.983039E-2,-3.5566303E-1,3.9611604E-2,1.8309526E-1,-2.4110657E-1,5.214615E-1,1.4247304E-1,1.3969596E-2,5.7328697E-2,-4.2306457E-2,-3.5174196E-3,-2.8414473E-2,-1.3032283E-2,-1.3233738E-2,1.2384712E-2,-1.1507813E-2,-4.5892324E-2,-1.2209671E-2,1.6191537E-2,-2.6216326E-2,1.0864067E-2,-2.3382839E-2,3.3950186E-4,3.0687818E-2,4.9684225E-3,1.3003694E-2,-2.5111055E-2],"categories":[],"categories_nodes":[],"categories_segments":[],"categories_sizes":[],"default_left":[0,0,0,0,0,0,0,0,0,0,0,0,0,0,0,0,0,0,0,0,0,0,0,0,0,0,0,0,0,0,0,0,0,0,0,0,0,0,0,0,0,0,0,0,0],"id":16,"left_children":[1,3,5,7,9,11,13,-1,-1,15,17,-1,19,21,23,25,27,29,31,33,35,37,39,41,43,-1,-1,-1,-1,-1,-1,-1,-1,-1,-1,-1,-1,-1,-1,-1,-1,-1,-1,-1,-1],"loss_changes":[5.742311E1,1.8787373E1,3.240584E1,8.602065E0,1.3482819E1,1.3716361E1,2.365794E1,0E0,0E0,2.2915028E1,1.1994835E1,0E0,1.1317063E1,1.9105648E1,1.3009697E1,4.417389E0,3.4571218E0,1.1038666E1,1.1386211E1,1.3189882E1,9.483987E0,9.844351E0,8.135237E0,1.0194954E1,1.0820943E1,0E0,0E0,0E0,0E0,0E0,0E0,0E0,0E0,0E0,0E0,0E0,0E0,0E0,0E0,0E0,0E0,0E0,0E0,0E0,0E0],"parents":[2147483647,0,0,1,1,2,2,3,3,4,4,5,5,6,6,9,9,10,10,12,12,13,13,14,14,15,15,16,16,17,17,18,18,19,19,20,20,21,21,22,22,23,23,24,24],"right_children":[2,4,6,8,10,12,14,-1,-1,16,18,-1,20,22,24,26,28,30,32,34,36,38,40,42,44,-1,-1,-1,-1,-1,-1,-1,-1,-1,-1,-1,-1,-1,-1,-1,-1,-1,-1,-1,-1],"split_conditions":[-2.5029647E-1,-1.4867878E0,-4.454124E-1,1.9296853E-1,-1.3898896E0,-1.9215918E0,2.7807203E-1,4.537235E-3,6.1614532E-2,1.5483917E-1,4.5339295E-1,3.633362E-2,8.427567E-2,5.2860564E-1,1.9571456E-1,-3.8451692E-1,-5.771988E-2,-4.9370006E-1,2.4978353E-1,9.927537E-1,-1.819796E-1,-8.372838E-1,3.3149484E-3,6.300202E-1,3.8755947E-1,1.3969596E-2,5.7328697E-2,-4.2306457E-2,-3.5174196E-3,-2.8414473E-2,-1.3032283E-2,-1.3233738E-2,1.2384712E-2,-1.1507813E-2,-4.5892324E-2,-1.2209671E-2,1.6191537E-2,-2.6216326E-2,1.0864067E-2,-2.3382839E-2,3.3950186E-4,3.0687818E-2,4.9684225E-3,1.3003694E-2,-2.5111055E-2],"split_indices":[44,123,67,18,36,123,47,0,0,43,46,0,117,50,123,50,41,117,99,109,46,64,78,83,49,0,0,0,0,0,0,0,0,0,0,0,0,0,0,0,0,0,0,0,0],"split_type":[0,0,0,0,0,0,0,0,0,0,0,0,0,0,0,0,0,0,0,0,0,0,0,0,0,0,0,0,0,0,0,0,0,0,0,0,0,0,0,0,0,0,0,0,0],"sum_hessian":[2.0382013E3,7.6653925E2,1.271662E3,2.6769913E1,7.3976935E2,3.216484E2,9.500136E2,1.6120335E1,1.0649578E1,5.048359E1,6.892857E2,1.5593532E1,3.0605487E2,5.4559814E2,4.044155E2,2.7371944E1,2.3111647E1,5.0332254E2,1.859632E2,1.9055823E2,1.15496635E2,4.0261975E2,1.429784E2,2.640936E2,1.4032191E2,1.0486481E1,1.6885464E1,1.1720559E1,1.1391087E1,1.9054248E2,3.1278003E2,1.19192184E2,6.677102E1,1.5707803E2,3.348021E1,5.7684834E1,5.7811802E1,1.7763895E1,3.8485583E2,7.445323E1,6.852516E1,2.1614117E2,4.795241E1,1.19309906E2,2.1012014E1],"tree_param":{"num_deleted":"0","num_feature":"124","num_nodes":"45","size_leaf_vector":"1"}},{"base_weights":[-1.43549405E-2,1.19705245E-1,-1.8584247E-1,9.173767E-2,1.034787E0,-1.4199397E-1,-8.1947696E-1,5.599063E-2,7.5809854E-1,6.8601094E-2,2.9832397E-2,-1.8162653E-1,4.2952257E-1,-9.604173E-1,-1.4058192E-2,5.8979433E-2,3.6865737E-2,8.126902E-3,9.1895527E-1,-3.8538843E-1,-6.8208635E-2,6.1248112E-2,1.6709976E-1,-6.4029914E-1,-1.2086847E0,-4.973827E-3,8.073039E-3,5.8348894E-2,2.1403676E-2,-4.6367E-2,-1.5911456E-2,-1.5566304E-2,1.4282585E-3,3.6033142E-2,-1.1013216E-2,-9.121965E-3,-5.0150204E-2,-7.2159894E-2,-4.003336E-2],"categories":[],"categories_nodes":[],"categories_segments":[],"categories_sizes":[],"default_left":[0,0,0,0,0,0,0,0,0,0,0,0,0,0,0,0,0,0,0,0,0,0,0,0,0,0,0,0,0,0,0,0,0,0,0,0,0,0,0],"id":17,"left_children":[1,3,5,7,9,11,13,15,17,-1,-1,19,21,23,-1,-1,25,-1,27,29,31,-1,33,35,37,-1,-1,-1,-1,-1,-1,-1,-1,-1,-1,-1,-1,-1,-1],"loss_changes":[4.658543E1,2.8887804E1,2.4494165E1,2.6182339E1,3.936142E0,1.8922277E1,3.9453468E0,2.2384014E1,5.1077385E0,0E0,0E0,1.7951813E1,1.0960709E1,2.5991058E0,0E0,0E0,1.7568842E1,0E0,4.667248E0,9.711273E0,1.1860765E1,0E0,9.209294E0,3.328186E0,9.080353E-1,0E0,0E0,0E0,0E0,0E0,0E0,0E0,0E0,0E0,0E0,0E0,0E0,0E0,0E0],"parents":[2147483647,0,0,1,1,2,2,3,3,4,4,5,5,6,6,7,7,8,8,11,11,12,12,13,13,16,16,18,18,19,19,20,20,22,22,23,23,24,24],"right_children":[2,4,6,8,10,12,14,16,18,-1,-1,20,22,24,-1,-1,26,-1,28,30,32,-1,34,36,38,-1,-1,-1,-1,-1,-1,-1,-1,-1,-1,-1,-1,-1,-1],"split_conditions":[1.1064422E-1,5.9324903E0,1.774242E0,1.5166503E0,-3.295453E-1,6.734855E-1,4.259616E-1,-2.6399636E0,-1.4712757E0,6.8601094E-2,2.9832397E-2,-4.01559E-1,-3.239648E-1,-7.1734615E-2,-1.4058192E-2,5.8979433E-2,-1.5868032E-1,8.126902E-3,-1.5401907E-1,-5.1451296E-1,-1.5084453E-1,6.1248112E-2,-4.7291808E-2,1.8516243E-2,1.5397911E0,-4.973827E-3,8.073039E-3,5.8348894E-2,2.1403676E-2,-4.6367E-2,-1.5911456E-2,-1.5566304E-2,1.4282585E-3,3.6033142E-2,-1.1013216E-2,-9.121965E-3,-5.0150204E-2,-7.2159894E-2,-4.003336E-2],"split_indices":[123,74,123,117,95,45,39,123,97,0,0,117,3,50,0,0,47,0,123,45,67,0,8,52,22,0,0,0,0,0,0,0,0,0,0,0,0,0,0],"split_type":[0,0,0,0,0,0,0,0,0,0,0,0,0,0,0,0,0,0,0,0,0,0,0,0,0,0,0,0,0,0,0,0,0,0,0,0,0,0,0],"sum_hessian":[2.0241099E3,1.1358665E3,8.8824347E2,1.1033542E3,3.2512196E1,8.3204645E2,5.6197006E1,1.0483494E3,5.5004795E1,1.7038208E1,1.5473988E1,7.7889044E2,5.3156E1,4.376788E1,1.2429128E1,1.6442396E1,1.031907E3,1.2256839E1,4.2747955E1,2.7734473E2,5.0154572E2,1.21819315E1,4.0974068E1,2.0856802E1,2.2911077E1,4.9243866E2,5.394684E2,2.7348728E1,1.5399226E1,2.9003098E1,2.4834164E2,1.4246301E2,3.590827E2,1.6620398E1,2.435367E1,1.0005317E1,1.0851485E1,1.2782175E1,1.0128902E1],"tree_param":{"num_deleted":"0","num_feature":"124","num_nodes":"39","size_leaf_vector":"1"}},{"base_weights":[-6.998908E-3,-2.1683413E-1,8.735665E-2,-7.5139806E-2,-3.806692E-1,-1.6683146E-1,1.7525296E-1,4.202872E-2,-1.17812626E-1,1.465295E-2,-4.2648906E-1,-3.9855797E-2,-4.7862175E-1,6.551323E-2,3.3446443E-1,2.306628E-1,-2.2284278E-1,-5.415706E-1,-1.4066671E-1,-2.0070541E-1,2.429392E-1,1.1747329E-2,-5.636192E-1,-6.430799E-2,2.5072077E-1,4.2998767E-1,5.760046E-2,3.440978E-2,-2.580092E-3,-3.8975157E-2,-7.3323213E-3,-2.9712608E-2,1.2634802E-2,-1.6088933E-2,2.458719E-2,-2.0812827E-3,-2.8533626E-2,3.1712044E-2,-3.6305443E-3,-4.5737002E-2,-1.728313E-2,-2.837341E-2,8.376372E-4,2.1967176E-2,1.9882014E-3,-3.6912826E-3,2.5698636E-2,7.66495E-3,-3.9491113E-2],"categories":[],"categories_nodes":[],"categories_segments":[],"categories_sizes":[],"default_left":[0,0,0,0,0,0,0,0,0,0,0,0,0,0,0,0,0,0,0,0,0,0,0,0,0,0,0,0,0,0,0,0,0,0,0,0,0,0,0,0,0,0,0,0,0,0,0,0,0],"id":18,"left_children":[1,3,5,7,9,11,13,-1,15,-1,17,19,21,23,25,27,29,31,33,35,37,-1,39,41,43,45,47,-1,-1,-1,-1,-1,-1,-1,-1,-1,-1,-1,-1,-1,-1,-1,-1,-1,-1,-1,-1,-1,-1],"loss_changes":[4.056427E1,1.46814575E1,3.1589762E1,1.3406995E1,9.220531E0,1.43068075E1,1.8290348E1,0E0,1.2061051E1,0E0,8.934639E0,1.1843457E1,6.5203094E0,1.5024128E1,1.12450905E1,9.948979E0,1.0519138E1,8.39336E0,9.399595E0,9.691679E0,1.1742466E1,0E0,6.7550545E0,1.503282E1,1.0177988E1,1.35276375E1,9.075867E0,0E0,0E0,0E0,0E0,0E0,0E0,0E0,0E0,0E0,0E0,0E0,0E0,0E0,0E0,0E0,0E0,0E0,0E0,0E0,0E0,0E0,0E0],"parents":[2147483647,0,0,1,1,2,2,3,3,4,4,5,5,6,6,8,8,10,10,11,11,12,12,13,13,14,14,15,15,16,16,17,17,18,18,19,19,20,20,22,22,23,23,24,24,25,25,26,26],"right_children":[2,4,6,8,10,12,14,-1,16,-1,18,20,22,24,26,28,30,32,34,36,38,-1,40,42,44,46,48,-1,-1,-1,-1,-1,-1,-1,-1,-1,-1,-1,-1,-1,-1,-1,-1,-1,-1,-1,-1,-1,-1],"split_conditions":[-3.0854428E-1,1.0119196E-1,-4.454124E-1,-1.8863056E0,-7.534276E-1,3.9421204E-1,2.51112E-1,4.202872E-2,-7.657449E-1,1.465295E-2,3.161511E-1,8.427567E-2,-9.453404E-1,2.7509172E-2,-1.95046E-2,-1.5342428E-1,-8.75974E-1,8.010197E-1,7.328591E-1,5.5437595E-1,-7.6843604E-2,1.1747329E-2,-2.7631778E-1,-9.9076563E-1,3.0031908E-1,-6.360999E-1,9.046341E-1,3.440978E-2,-2.580092E-3,-3.8975157E-2,-7.3323213E-3,-2.9712608E-2,1.2634802E-2,-1.6088933E-2,2.458719E-2,-2.0812827E-3,-2.8533626E-2,3.1712044E-2,-3.6305443E-3,-4.5737002E-2,-1.728313E-2,-2.837341E-2,8.376372E-4,2.1967176E-2,1.9882014E-3,-3.6912826E-3,2.5698636E-2,7.66495E-3,-3.9491113E-2],"split_indices":[44,123,67,21,97,123,47,0,101,0,82,117,76,46,49,32,94,48,67,106,55,0,45,101,17,117,123,0,0,0,0,0,0,0,0,0,0,0,0,0,0,0,0,0,0,0,0,0,0],"split_type":[0,0,0,0,0,0,0,0,0,0,0,0,0,0,0,0,0,0,0,0,0,0,0,0,0,0,0,0,0,0,0,0,0,0,0,0,0,0,0,0,0,0,0,0,0,0,0,0,0],"sum_hessian":[2.0461813E3,6.3462177E2,1.4115594E3,3.4141486E2,2.932069E2,3.6216772E2,1.0493917E3,1.4264836E1,3.2715002E2,1.818844E1,2.7501846E2,2.583884E2,1.0377935E2,6.224174E2,4.269743E2,7.5269165E1,2.5188086E2,1.9518561E2,7.983285E1,1.6511647E2,9.327191E1,1.0733032E1,9.304632E1,3.6598975E2,2.5642767E2,3.1676886E2,1.1020544E2,2.83049E1,4.6964264E1,2.9057285E1,2.2282358E2,1.8339897E2,1.1786638E1,6.256467E1,1.7268179E1,1.164344E2,4.868207E1,4.132871E1,5.1943207E1,3.4236603E1,5.880971E1,5.0119713E1,3.1587006E2,1.3455835E2,1.2186932E2,4.5107304E1,2.7166156E2,9.986491E1,1.0340532E1],"tree_param":{"num_deleted":"0","num_feature":"124","num_nodes":"49","size_leaf_vector":"1"}},{"base_weights":[-4.1808365E-3,-2.7433935E-1,7.644967E-2,3.5765026E-2,-3.085581E-1,2.1869635E-2,4.3221366E-1,2.0345575E-1,-3.4831142E-1,-2.630558E-1,9.52166E-2,5.7616144E-1,-4.3443043E-2,-2.004596E-2,3.0733941E-2,-4.0760142E-1,-6.1475965E-3,-4.6108878E-1,-1.9957094E-2,2.1753213E-1,-5.554352E-2,1.1011612E-1,6.961348E-1,-5.305184E-1,3.184366E-1,-8.373543E-3,-2.544944E-2,3.1677764E-2,-1.3537074E-2,1.3182242E-2,-2.694658E-2,5.203357E-3,-4.0234897E-2,-3.1209465E-3,1.4670506E-2,-5.8740024E-3,1.993161E-2,2.2865763E-2,-2.3183623E-2,4.001351E-3,4.005861E-2,-4.314624E-2,-7.635324E-3,-1.0888188E-2,3.144981E-2],"categories":[],"categories_nodes":[],"categories_segments":[],"categories_sizes":[],"default_left":[0,0,0,0,0,0,0,0,0,0,0,0,0,0,0,0,0,0,0,0,0,0,0,0,0,0,0,0,0,0,0,0,0,0,0,0,0,0,0,0,0,0,0,0,0],"id":19,"left_children":[1,3,5,-1,7,9,11,13,15,17,19,21,23,-1,-1,25,27,29,31,33,35,37,39,41,43,-1,-1,-1,-1,-1,-1,-1,-1,-1,-1,-1,-1,-1,-1,-1,-1,-1,-1,-1,-1],"loss_changes":[4.417692E1,1.5968502E1,3.0254955E1,0E0,9.274128E0,2.8317665E1,1.4273777E1,8.463242E0,8.465813E0,1.3292824E1,1.9912642E1,8.754711E0,8.815495E0,0E0,0E0,8.544857E0,1.0835082E1,8.77565E0,1.2393822E1,1.2699274E1,1.361749E1,6.9828396E0,8.027679E0,2.4481988E0,4.9377394E0,0E0,0E0,0E0,0E0,0E0,0E0,0E0,0E0,0E0,0E0,0E0,0E0,0E0,0E0,0E0,0E0,0E0,0E0,0E0,0E0],"parents":[2147483647,0,0,1,1,2,2,4,4,5,5,6,6,7,7,8,8,9,9,10,10,11,11,12,12,15,15,16,16,17,17,18,18,19,19,20,20,21,21,22,22,23,23,24,24],"right_children":[2,4,6,-1,8,10,12,14,16,18,20,22,24,-1,-1,26,28,30,32,34,36,38,40,42,44,-1,-1,-1,-1,-1,-1,-1,-1,-1,-1,-1,-1,-1,-1,-1,-1,-1,-1,-1,-1],"split_conditions":[-4.0683743E-1,-1.5813104E0,1.1256163E0,3.5765026E-2,-1.3294314E0,-3.5968608E-1,4.799938E-1,-4.1768047E-1,9.0626526E-1,6.642598E-2,9.17397E-2,-5.4783565E-1,5.1566285E-1,-2.004596E-2,3.0733941E-2,-4.1826102E-1,-5.1063883E-1,-1.0846473E0,6.651463E-1,-8.381696E-1,6.8530893E-1,-1.714649E-1,-5.056538E-1,-5.3009793E-2,-1.9159961E-1,-8.373543E-3,-2.544944E-2,3.1677764E-2,-1.3537074E-2,1.3182242E-2,-2.694658E-2,5.203357E-3,-4.0234897E-2,-3.1209465E-3,1.4670506E-2,-5.8740024E-3,1.993161E-2,2.2865763E-2,-2.3183623E-2,4.001351E-3,4.005861E-2,-4.314624E-2,-7.635324E-3,-1.0888188E-2,3.144981E-2],"split_indices":[44,123,67,0,96,45,107,116,107,44,123,33,78,0,0,13,50,20,53,67,44,1,52,45,51,0,0,0,0,0,0,0,0,0,0,0,0,0,0,0,0,0,0,0,0],"split_type":[0,0,0,0,0,0,0,0,0,0,0,0,0,0,0,0,0,0,0,0,0,0,0,0,0,0,0,0,0,0,0,0,0,0,0,0,0,0,0,0,0,0,0,0,0],"sum_hessian":[2.0251727E3,4.6522833E2,1.5599443E3,1.4785683E1,4.5044266E2,1.3536195E3,2.0632489E2,3.197523E1,4.184674E2,2.763098E2,1.0773097E3,1.5839026E2,4.793464E1,1.28586855E1,1.9116545E1,3.562526E2,6.2214813E1,1.5154787E2,1.2476193E2,5.948848E2,4.8242484E2,3.29899E1,1.2540036E2,2.0351997E1,2.758264E1,1.0684174E2,2.4941086E2,1.7685234E1,4.452958E1,1.4342702E1,1.3720517E2,1.0837395E2,1.6387987E1,1.26611725E2,4.6827313E2,4.253771E2,5.7047718E1,2.0788225E1,1.2201674E1,1.8660297E1,1.0674006E2,1.0002719E1,1.03492775E1,1.0107763E1,1.7474876E1],"tree_param":{"num_deleted":"0","num_feature":"124","num_nodes":"45","size_leaf_vector":"1"}},{"base_weights":[-9.258166E-3,1.0364958E-1,-1.5717527E-1,2.467066E-2,3.3478618E-1,-3.829919E-1,-4.9634468E-2,-1.5620653E-1,1.2807529E-1,2.8636405E-1,4.679234E-2,-7.253988E-1,-2.888147E-1,-1.8580088E-1,1.10389635E-1,-3.7410922E-2,-4.6640238E-1,5.387451E-2,9.8584294E-2,3.3187294E-1,-2.6456011E-2,-1.0397574E0,-1.565422E-1,-8.3221185E-1,-2.0664668E-1,-3.2501814E-1,6.856536E-2,2.995774E-1,-1.272184E-1,2.6551738E-2,-7.0962342E-3,1.5624252E-2,-3.4824315E-2,2.5859657E-3,2.5570694E-2,-1.4820375E-2,1.9339174E-2,-6.430579E-2,-2.8861484E-2,1.4675741E-2,-2.9617E-2,-5.976745E-2,-1.8900717E-2,-1.7150218E-2,5.964012E-3,-1.9907344E-2,2.2390636E-2,-3.6211036E-2,8.610244E-3,2.4191545E-2,-4.3814452E-3,-1.2308572E-2,3.167745E-2],"categories":[],"categories_nodes":[],"categories_segments":[],"categories_sizes":[],"default_left":[0,0,0,0,0,0,0,0,0,0,0,0,0,0,0,0,0,0,0,0,0,0,0,0,0,0,0,0,0,0,0,0,0,0,0,0,0,0,0,0,0,0,0,0,0,0,0,0,0,0,0,0,0],"id":20,"left_children":[1,3,5,7,9,11,13,15,17,19,-1,21,23,25,27,29,31,-1,33,35,-1,37,39,41,43,45,47,49,51,-1,-1,-1,-1,-1,-1,-1,-1,-1,-1,-1,-1,-1,-1,-1,-1,-1,-1,-1,-1,-1,-1,-1,-1],"loss_changes":[3.3491306E1,2.0706953E1,2.1024199E1,1.5889844E1,8.0239105E0,8.707478E0,1.2876313E1,1.131085E1,1.4919802E1,1.0144144E1,0E0,1.0346514E1,9.602011E0,1.1354298E1,1.225383E1,1.3379837E1,1.5522497E1,0E0,1.0089411E1,8.943239E0,0E0,3.400341E0,4.6061172E0,4.102749E0,8.670103E0,1.1859329E1,9.395636E0,1.0898315E1,1.1045134E1,0E0,0E0,0E0,0E0,0E0,0E0,0E0,0E0,0E0,0E0,0E0,0E0,0E0,0E0,0E0,0E0,0E0,0E0,0E0,0E0,0E0,0E0,0E0,0E0],"parents":[2147483647,0,0,1,1,2,2,3,3,4,4,5,5,6,6,7,7,8,8,9,9,11,11,12,12,13,13,14,14,15,15,16,16,18,18,19,19,21,21,22,22,23,23,24,24,25,25,26,26,27,27,28,28],"right_children":[2,4,6,8,10,12,14,16,18,20,-1,22,24,26,28,30,32,-1,34,36,-1,38,40,42,44,46,48,50,52,-1,-1,-1,-1,-1,-1,-1,-1,-1,-1,-1,-1,-1,-1,-1,-1,-1,-1,-1,-1,-1,-1,-1,-1],"split_conditions":[1.1064422E-1,4.695928E-1,-4.1831192E-1,-2.1379153E-1,1.03844E0,-3.6418197E-1,-7.087443E-2,6.154485E-1,-8.173522E-1,7.5975853E-1,4.679234E-2,8.457179E-2,-7.1136075E-1,2.7200168E-1,2.6543304E-1,-1.0313991E0,-5.4800946E-1,5.387451E-2,7.2410196E-1,-7.1675277E-1,-2.6456011E-2,1.0792643E-1,-1.021417E0,3.9265805E-1,1.5216838E0,2.1448848E0,-1.1534339E0,1.3546775E-1,1.5580188E0,2.6551738E-2,-7.0962342E-3,1.5624252E-2,-3.4824315E-2,2.5859657E-3,2.5570694E-2,-1.4820375E-2,1.9339174E-2,-6.430579E-2,-2.8861484E-2,1.4675741E-2,-2.9617E-2,-5.976745E-2,-1.8900717E-2,-1.7150218E-2,5.964012E-3,-1.9907344E-2,2.2390636E-2,-3.6211036E-2,8.610244E-3,2.4191545E-2,-4.3814452E-3,-1.2308572E-2,3.167745E-2],"split_indices":[123,117,117,45,2,1,45,27,46,22,0,56,47,108,91,95,46,0,45,47,0,92,117,122,70,117,122,54,113,0,0,0,0,0,0,0,0,0,0,0,0,0,0,0,0,0,0,0,0,0,0,0,0],"split_type":[0,0,0,0,0,0,0,0,0,0,0,0,0,0,0,0,0,0,0,0,0,0,0,0,0,0,0,0,0,0,0,0,0,0,0,0,0,0,0,0,0,0,0,0,0,0,0,0,0,0,0,0,0],"sum_hessian":[2.0030531E3,1.1357433E3,8.673098E2,8.476443E2,2.88099E2,2.7866705E2,5.8864276E2,3.0778452E2,5.398598E2,2.681401E2,1.995888E1,5.8437473E1,2.2022957E2,3.1827908E2,2.7036365E2,2.2359671E2,8.418779E1,1.5091339E1,5.2476843E2,2.5464507E2,1.3495056E1,3.6991707E1,2.1445765E1,2.7568317E1,1.9266125E2,2.0577286E2,1.1250623E2,1.506074E2,1.1975624E2,3.3943222E1,1.8965349E2,1.9017244E1,6.517054E1,4.724974E2,5.2271046E1,1.9966888E1,2.3467818E2,2.283315E1,1.4158559E1,1.0598012E1,1.0847754E1,1.4290732E1,1.3277585E1,1.3601234E2,5.6648907E1,1.88546E2,1.7226852E1,1.2203479E1,1.0030276E2,1.02053566E2,4.8553837E1,1.042618E2,1.5494439E1],"tree_param":{"num_deleted":"0","num_feature":"124","num_nodes":"53","size_leaf_vector":"1"}},{"base_weights":[1.7508551E-2,1.3445729E-1,-1.2135245E-1,6.2336553E-2,1.1763935E-1,-8.50805E-2,-7.1356964E-1,5.1845476E-2,3.6334363E-1,-1.4432229E-1,2.9269007E-1,-4.5482078E-1,-1.0838007E0,-3.3706075E-1,8.2481995E-2,8.717082E-2,5.573243E-1,-1.8234128E-1,3.3802283E-1,1.5759991E-1,9.016795E-1,-4.541786E-2,-0E0,-3.8691174E-2,-6.4290285E-2,2.2977423E-2,-2.6592663E-2,7.900588E-4,1.500236E-2,-2.8726349E-2,9.493145E-3,2.3426937E-2,6.085458E-2,-1.9600121E-2,-4.4010743E-3,1.3262992E-4,5.1252037E-2,1.9244296E-2,-1.1590165E-2,1.6128054E-2,6.949729E-2],"categories":[],"categories_nodes":[],"categories_segments":[],"categories_sizes":[],"default_left":[0,0,0,0,0,0,0,0,0,0,0,0,0,0,0,0,0,0,0,0,0,0,0,0,0,0,0,0,0,0,0,0,0,0,0,0,0,0,0,0,0],"id":21,"left_children":[1,3,5,-1,7,9,11,13,15,17,19,21,23,25,27,29,31,33,35,37,39,-1,-1,-1,-1,-1,-1,-1,-1,-1,-1,-1,-1,-1,-1,-1,-1,-1,-1,-1,-1],"loss_changes":[3.2979435E1,2.0343315E1,1.979499E1,0E0,1.7518742E1,1.9627518E1,4.4559803E0,1.023981E1,1.2165464E1,1.3945924E1,9.527513E0,6.9225388E0,1.15924835E-1,9.981351E0,1.1533712E1,6.5913277E0,7.124283E0,1.3828005E1,1.2690588E1,8.8310375E0,5.3826027E0,0E0,0E0,0E0,0E0,0E0,0E0,0E0,0E0,0E0,0E0,0E0,0E0,0E0,0E0,0E0,0E0,0E0,0E0,0E0,0E0],"parents":[2147483647,0,0,1,1,2,2,4,4,5,5,6,6,7,7,8,8,9,9,10,10,11,11,12,12,13,13,14,14,15,15,16,16,17,17,18,18,19,19,20,20],"right_children":[2,4,6,-1,8,10,12,14,16,18,20,22,24,26,28,30,32,34,36,38,40,-1,-1,-1,-1,-1,-1,-1,-1,-1,-1,-1,-1,-1,-1,-1,-1,-1,-1,-1,-1],"split_conditions":[6.338292E-2,-2.6399636E0,1.774242E0,6.2336553E-2,8.3104837E-1,4.741606E-1,8.4118044E-1,-5.264227E-1,-8.647451E-2,6.734855E-1,1.1531571E0,3.959665E-1,1.9279578E0,-6.656384E-1,4.695928E-1,-1.03851E0,6.4638305E-1,-4.6857068E-1,4.418487E-1,-3.3388263E-1,6.2582836E-2,-4.541786E-2,-0E0,-3.8691174E-2,-6.4290285E-2,2.2977423E-2,-2.6592663E-2,7.900588E-4,1.500236E-2,-2.8726349E-2,9.493145E-3,2.3426937E-2,6.085458E-2,-1.9600121E-2,-4.4010743E-3,1.3262992E-4,5.1252037E-2,1.9244296E-2,-1.1590165E-2,1.6128054E-2,6.949729E-2],"split_indices":[123,123,123,0,67,44,96,45,44,45,33,95,8,54,117,81,17,117,98,113,76,0,0,0,0,0,0,0,0,0,0,0,0,0,0,0,0,0,0,0,0],"split_type":[0,0,0,0,0,0,0,0,0,0,0,0,0,0,0,0,0,0,0,0,0,0,0,0,0,0,0,0,0,0,0,0,0,0,0,0,0,0,0,0,0],"sum_hessian":[2.0287155E3,1.1016542E3,9.270613E2,1.5231395E1,1.0864227E3,8.747947E2,5.2266655E1,8.582275E2,2.281953E2,7.569697E2,1.1782493E2,3.223599E1,2.0030664E1,6.1702126E1,7.965253E2,9.496181E1,1.3323349E2,7.024325E2,5.4537228E1,9.759806E1,2.022687E1,1.572232E1,1.651367E1,1.0004492E1,1.0026174E1,1.1755432E1,4.9946693E1,6.108425E2,1.8568282E2,1.2009566E1,8.295224E1,1.1907163E2,1.41618595E1,2.1664386E2,4.8578864E2,3.741996E1,1.7117268E1,6.1796955E1,3.5801105E1,1.0105939E1,1.012093E1],"tree_param":{"num_deleted":"0","num_feature":"124","num_nodes":"41","size_leaf_vector":"1"}},{"base_weights":[-5.691198E-3,-1.4764376E-1,1.2102808E-1,-2.4878326E-1,9.4147E-2,1.4285389E-1,-6.834105E-1,1.237541E-1,-3.003031E-1,1.4432697E-1,-3.607775E-2,9.804315E-2,5.3621495E-1,-5.7321277E-2,-1.5481959E-2,-3.2307312E-2,3.1268606E-1,-3.2088372E-1,2.4215166E-2,9.833742E-2,4.97179E-2,-1.4810099E-1,1.831653E-1,-7.628231E-2,7.511908E-1,5.7194084E-3,6.081888E-2,-2.9948935E-2,-1.2834038E-2,6.9446E-3,-3.9107256E-2,-1.0688808E-2,2.472044E-2,2.0540962E-2,6.006041E-3,1.8951738E-2,-3.5129577E-2,2.551732E-2,5.306371E-2],"categories":[],"categories_nodes":[],"categories_segments":[],"categories_sizes":[],"default_left":[0,0,0,0,0,0,0,0,0,0,0,0,0,0,0,0,0,0,0,0,0,0,0,0,0,0,0,0,0,0,0,0,0,0,0,0,0,0,0],"id":22,"left_children":[1,3,5,7,9,11,13,15,17,19,-1,21,23,-1,-1,-1,25,27,-1,29,-1,31,33,35,37,-1,-1,-1,-1,-1,-1,-1,-1,-1,-1,-1,-1,-1,-1],"loss_changes":[3.637871E1,2.3371958E1,1.8796658E1,1.2977573E1,1.1582476E1,1.8230474E1,4.3911114E0,1.2136135E1,9.698959E0,1.0209202E1,0E0,1.9638596E1,1.4080845E1,0E0,0E0,0E0,1.1705593E1,1.0073864E1,0E0,9.113911E0,0E0,1.0235434E1,9.888403E0,8.375569E0,5.1762733E0,0E0,0E0,0E0,0E0,0E0,0E0,0E0,0E0,0E0,0E0,0E0,0E0,0E0,0E0],"parents":[2147483647,0,0,1,1,2,2,3,3,4,4,5,5,6,6,7,7,8,8,9,9,11,11,12,12,16,16,17,17,19,19,21,21,22,22,23,23,24,24],"right_children":[2,4,6,8,10,12,14,16,18,20,-1,22,24,-1,-1,-1,26,28,-1,30,-1,32,34,36,38,-1,-1,-1,-1,-1,-1,-1,-1,-1,-1,-1,-1,-1,-1],"split_conditions":[-1.1553603E-1,1.6107866E-1,1.774242E0,-8.2512957E-1,1.8486089E0,6.70747E-1,1.9093056E-1,-6.162664E-1,2.1448848E0,1.8005892E0,-3.607775E-2,-6.02594E-1,-4.454124E-1,-5.7321277E-2,-1.5481959E-2,-3.2307312E-2,7.328591E-1,-4.966483E-1,2.4215166E-2,1.1157E0,4.97179E-2,9.7135967E-1,-6.5156627E-1,5.608555E-1,2.0179988E-1,5.7194084E-3,6.081888E-2,-2.9948935E-2,-1.2834038E-2,6.9446E-3,-3.9107256E-2,-1.0688808E-2,2.472044E-2,2.0540962E-2,6.006041E-3,1.8951738E-2,-3.5129577E-2,2.551732E-2,5.306371E-2],"split_indices":[45,44,123,123,7,44,95,33,117,31,0,117,67,0,0,0,67,45,0,9,0,46,100,89,82,0,0,0,0,0,0,0,0,0,0,0,0,0,0],"split_type":[0,0,0,0,0,0,0,0,0,0,0,0,0,0,0,0,0,0,0,0,0,0,0,0,0,0,0,0,0,0,0,0,0,0,0,0,0,0,0],"sum_hessian":[2.0202324E3,9.531385E2,1.067094E3,6.723031E2,2.8083536E2,1.0398284E3,2.7265615E1,8.127376E1,5.9102936E2,2.654511E2,1.5384241E1,9.348374E2,1.0499096E2,1.1135999E1,1.6129616E1,1.54333515E1,6.584041E1,5.7662274E2,1.4406613E1,2.5299646E2,1.2454635E1,2.3972374E2,6.9511365E2,2.73232E1,7.766776E1,5.5007336E1,1.0833075E1,1.06299515E2,4.7032324E2,2.4277042E2,1.0226052E1,2.1823901E2,2.1484734E1,1.4921065E2,5.45903E2,1.5957496E1,1.1365705E1,4.53851E1,3.2282658E1],"tree_param":{"num_deleted":"0","num_feature":"124","num_nodes":"39","size_leaf_vector":"1"}},{"base_weights":[-1.0358932E-3,-2.9023958E-2,4.4399518E-1,2.3446473E-1,-7.8095004E-2,5.9938824E-1,-6.7032734E-3,1.5340662E-1,6.222816E-1,-3.8517514E-1,-3.665939E-2,7.9046404E-1,1.3364178E-1,-3.3785167E-1,3.111291E-2,-3.316161E-1,2.5200745E-1,8.127236E-1,-6.2457817E-3,-4.6708912E-1,2.3785535E-2,-1.8870899E-1,7.2921105E-2,4.6619183E-1,1.0625347E0,-1.7721772E-2,2.3041895E-2,2.5246846E-3,-3.4894306E-2,3.09704E-3,-4.139385E-2,3.468177E-2,8.406062E-3,5.5975437E-2,2.285265E-2,-2.779983E-2,1.1190248E-2,-1.3281518E-3,-1.8093763E-2,1.0968517E-3,2.5096988E-2,1.5898139E-3,4.1326314E-2,6.582122E-2,3.322438E-2],"categories":[],"categories_nodes":[],"categories_segments":[],"categories_sizes":[],"default_left":[0,0,0,0,0,0,0,0,0,0,0,0,0,0,0,0,0,0,0,0,0,0,0,0,0,0,0,0,0,0,0,0,0,0,0,0,0,0,0,0,0,0,0,0,0],"id":23,"left_children":[1,3,5,7,9,11,13,15,17,19,21,23,25,27,-1,29,31,33,-1,35,-1,37,39,41,43,-1,-1,-1,-1,-1,-1,-1,-1,-1,-1,-1,-1,-1,-1,-1,-1,-1,-1,-1,-1],"loss_changes":[2.4985287E1,2.4447186E1,8.374821E0,9.155363E0,2.02364E1,7.671177E0,6.6906934E0,1.1887333E1,7.393368E0,1.3564856E1,2.3461823E1,4.8522453E0,4.49849E0,3.0675318E0,0E0,8.328335E0,7.428693E0,3.7705727E0,0E0,1.0808277E1,0E0,1.651213E1,1.7824617E1,4.6453314E0,2.2573166E0,0E0,0E0,0E0,0E0,0E0,0E0,0E0,0E0,0E0,0E0,0E0,0E0,0E0,0E0,0E0,0E0,0E0,0E0,0E0,0E0],"parents":[2147483647,0,0,1,1,2,2,3,3,4,4,5,5,6,6,7,7,8,8,9,9,10,10,11,11,12,12,13,13,15,15,16,16,17,17,19,19,21,21,22,22,23,23,24,24],"right_children":[2,4,6,8,10,12,14,16,18,20,22,24,26,28,-1,30,32,34,-1,36,-1,38,40,42,44,-1,-1,-1,-1,-1,-1,-1,-1,-1,-1,-1,-1,-1,-1,-1,-1,-1,-1,-1,-1],"split_conditions":[1.7176853E0,-8.2512957E-1,6.646852E-1,6.904131E-1,-5.633784E-1,1.3442008E0,2.2247456E-1,-1.2309268E0,1.2016813E0,1.4759552E0,-5.265523E-2,-2.2265217E-1,-1.3497002E-1,-1.2722825E-1,3.111291E-2,1.10017225E-1,-8.5992247E-1,-1.1108878E0,-6.2457817E-3,1.2542021E0,2.3785535E-2,-7.816204E-2,6.70747E-1,-4.163961E-1,-5.157813E-1,-1.7721772E-2,2.3041895E-2,2.5246846E-3,-3.4894306E-2,3.09704E-3,-4.139385E-2,3.468177E-2,8.406062E-3,5.5975437E-2,2.285265E-2,-2.779983E-2,1.1190248E-2,-1.3281518E-3,-1.8093763E-2,1.0968517E-3,2.5096988E-2,1.5898139E-3,4.1326314E-2,6.582122E-2,3.322438E-2],"split_indices":[117,123,6,18,44,7,95,67,90,107,67,23,52,50,0,19,14,8,0,68,0,9,44,104,0,0,0,0,0,0,0,0,0,0,0,0,0,0,0,0,0,0,0,0,0],"split_type":[0,0,0,0,0,0,0,0,0,0,0,0,0,0,0,0,0,0,0,0,0,0,0,0,0,0,0,0,0,0,0,0,0,0,0,0,0,0,0,0,0,0,0,0,0],"sum_hessian":[2.0072517E3,1.8895756E3,1.1767618E2,2.957452E2,1.5938303E3,8.742538E1,3.0250797E1,2.4598499E2,4.976023E1,1.882199E2,1.4056105E3,6.1345886E1,2.6079493E1,2.0224451E1,1.0026346E1,4.098757E1,2.0499742E2,3.96903E1,1.0069931E1,1.723904E2,1.5829492E1,5.888021E2,8.168083E2,2.9393621E1,3.1952267E1,1.0310492E1,1.5769001E1,1.0009676E1,1.0214775E1,2.3234924E1,1.775265E1,3.1372536E1,1.7362488E2,2.0005615E1,1.9684685E1,1.5303688E2,1.9353516E1,3.0497064E2,2.8383148E2,7.311978E2,8.561047E1,1.3946453E1,1.5447167E1,1.7946722E1,1.4005544E1],"tree_param":{"num_deleted":"0","num_feature":"124","num_nodes":"45","size_leaf_vector":"1"}},{"base_weights":[-1.2919186E-2,-1.23393945E-1,1.5731916E-1,-1.4210057E-1,6.196428E-1,2.3722497E-1,-9.127389E-2,-4.9692872E-1,-1.0437421E-1,-2.7070136E-3,5.4231204E-2,1.7555265E-1,5.621381E-1,1.6062997E-1,-3.4228978E-1,-7.2214484E-1,-2.0290104E-1,-3.4161177E-1,-5.720313E-2,4.4417837E-1,1.0923656E-1,7.99099E-1,2.1732996E-1,2.6806995E-2,4.086452E-2,-7.867098E-1,-1.4311898E-1,-1.43452855E-2,-4.743746E-2,-3.2882284E-2,1.2312798E-3,-5.4255323E-3,-3.0666083E-2,-4.641934E-3,1.5744338E-2,1.4161359E-2,4.864604E-2,-2.9702864E-3,1.2653287E-2,1.2475102E-2,4.785768E-2,-1.8710203E-2,2.394158E-2,2.089779E-2,-1.1653307E-2,-5.961695E-2,-1.1353683E-2,3.436547E-2,-1.5240877E-2],"categories":[],"categories_nodes":[],"categories_segments":[],"categories_sizes":[],"default_left":[0,0,0,0,0,0,0,0,0,0,0,0,0,0,0,0,0,0,0,0,0,0,0,0,0,0,0,0,0,0,0,0,0,0,0,0,0,0,0,0,0,0,0,0,0,0,0,0,0],"id":24,"left_children":[1,3,5,7,9,11,13,15,17,-1,-1,19,21,23,25,27,29,31,33,35,37,39,41,43,-1,45,47,-1,-1,-1,-1,-1,-1,-1,-1,-1,-1,-1,-1,-1,-1,-1,-1,-1,-1,-1,-1,-1,-1],"loss_changes":[3.810724E1,1.7125835E1,1.5871222E1,1.595112E1,9.636347E0,1.1927448E1,1.2360698E1,7.363083E0,1.20955105E1,0E0,0E0,8.967569E0,7.537327E0,8.4592285E0,8.455877E0,5.9581985E0,5.3953056E0,1.123601E1,1.20409975E1,8.12586E0,9.979868E0,4.5160484E0,6.4532456E0,8.464524E0,0E0,6.375761E0,9.429523E0,0E0,0E0,0E0,0E0,0E0,0E0,0E0,0E0,0E0,0E0,0E0,0E0,0E0,0E0,0E0,0E0,0E0,0E0,0E0,0E0,0E0,0E0],"parents":[2147483647,0,0,1,1,2,2,3,3,4,4,5,5,6,6,7,7,8,8,11,11,12,12,13,13,14,14,15,15,16,16,17,17,18,18,19,19,20,20,21,21,22,22,23,23,25,25,26,26],"right_children":[2,4,6,8,10,12,14,16,18,-1,-1,20,22,24,26,28,30,32,34,36,38,40,42,44,-1,46,48,-1,-1,-1,-1,-1,-1,-1,-1,-1,-1,-1,-1,-1,-1,-1,-1,-1,-1,-1,-1,-1,-1],"split_conditions":[2.2740128E-2,5.9324903E0,4.4147334E-1,-4.9367088E-1,-2.0188178E-1,1.1256163E0,-2.6617435E-1,1.5872763E-1,-5.742999E-1,-2.7070136E-3,5.4231204E-2,-8.1555295E-1,2.867872E-2,2.0615196E-1,-2.7631778E-1,-3.1011102E-1,-4.6857068E-1,-6.050296E-1,6.536734E-1,5.0725484E-1,-1.5722018E-1,-1.2097689E0,-8.404629E-1,2.40328E-1,4.086452E-2,-1.37754455E-2,-1.9890434E-1,-1.43452855E-2,-4.743746E-2,-3.2882284E-2,1.2312798E-3,-5.4255323E-3,-3.0666083E-2,-4.641934E-3,1.5744338E-2,1.4161359E-2,4.864604E-2,-2.9702864E-3,1.2653287E-2,1.2475102E-2,4.785768E-2,-1.8710203E-2,2.394158E-2,2.089779E-2,-1.1653307E-2,-5.961695E-2,-1.1353683E-2,3.436547E-2,-1.5240877E-2],"split_indices":[44,74,123,45,45,67,89,105,44,0,0,54,105,85,45,122,117,51,46,76,45,10,116,47,0,100,45,0,0,0,0,0,0,0,0,0,0,0,0,0,0,0,0,0,0,0,0,0,0],"split_type":[0,0,0,0,0,0,0,0,0,0,0,0,0,0,0,0,0,0,0,0,0,0,0,0,0,0,0,0,0,0,0,0,0,0,0,0,0,0,0,0,0,0,0,0,0,0,0,0,0],"sum_hessian":[2.0243701E3,1.2282015E3,7.961686E2,1.19896E3,2.9241558E1,6.028434E2,1.9332526E2,1.1380125E2,1.0851587E3,1.2212904E1,1.7028654E1,5.082245E2,9.4618866E1,9.647284E1,9.685242E1,6.3424156E1,5.037709E1,1.7859396E2,9.0656476E2,9.919812E1,4.0902637E2,5.5126793E1,3.9492077E1,8.113183E1,1.5341013E1,2.8904444E1,6.794797E1,2.2642363E1,4.078179E1,1.6316107E1,3.4060986E1,9.707784E1,8.151611E1,8.282604E2,7.830435E1,7.737091E1,2.1827213E1,1.882231E2,2.2080327E2,1.3029855E1,4.209694E1,1.1857112E1,2.7634964E1,3.229676E1,4.8835068E1,1.5998987E1,1.2905457E1,1.0443702E1,5.750427E1],"tree_param":{"num_deleted":"0","num_feature":"124","num_nodes":"49","size_leaf_vector":"1"}},{"base_weights":[-9.31226E-3,-5.7659205E-2,2.7323732E-1,-2.0205617E-2,-4.0924394E-1,3.07972E-1,-2.8151823E-2,-2.2244523E-1,4.389853E-2,-5.808538E-1,1.3783192E-2,7.41225E-1,2.3472917E-1,2.4963522E-1,-3.0779257E-1,4.8161976E-2,3.3540986E-2,7.925053E-3,-7.037315E-1,2.3162547E-1,-2.6698729E-2,4.5174813E-1,6.1080255E-2,2.9216695E-1,-2.9917195E-2,3.3736598E-2,-2.66143E-3,-5.878884E-3,-2.337583E-2,3.5313235E-3,-1.0002679E-2,-4.1594397E-2,-1.0431609E-2,-1.2337011E-2,3.1787585E-2,4.6217095E-2,4.812479E-3,-1.8577589E-2,1.744636E-2],"categories":[],"categories_nodes":[],"categories_segments":[],"categories_sizes":[],"default_left":[0,0,0,0,0,0,0,0,0,0,0,0,0,0,0,0,0,0,0,0,0,0,0,0,0,0,0,0,0,0,0,0,0,0,0,0,0,0,0],"id":25,"left_children":[1,3,5,7,9,11,-1,13,15,17,19,21,23,25,27,-1,29,-1,31,33,-1,35,-1,37,-1,-1,-1,-1,-1,-1,-1,-1,-1,-1,-1,-1,-1,-1,-1],"loss_changes":[2.7480808E1,2.2588367E1,8.683945E0,2.0188087E1,1.2058184E1,8.7057705E0,0E0,1.5184301E1,1.1115989E1,1.0861126E1,5.879196E0,4.877823E0,1.1803123E1,7.5345325E0,9.549652E0,0E0,1.01302E1,0E0,6.1464043E0,7.062298E0,0E0,4.316862E0,0E0,8.744091E0,0E0,0E0,0E0,0E0,0E0,0E0,0E0,0E0,0E0,0E0,0E0,0E0,0E0,0E0,0E0],"parents":[2147483647,0,0,1,1,2,2,3,3,4,4,5,5,7,7,8,8,9,9,10,10,11,11,12,12,13,13,14,14,16,16,18,18,19,19,21,21,23,23],"right_children":[2,4,6,8,10,12,-1,14,16,18,20,22,24,26,28,-1,30,-1,32,34,-1,36,-1,38,-1,-1,-1,-1,-1,-1,-1,-1,-1,-1,-1,-1,-1,-1,-1],"split_conditions":[1.0643215E0,9.8970443E-1,1.878217E0,-4.0683743E-1,4.7152075E-1,-2.9184654E-1,-2.8151823E-2,-9.926072E-1,-8.2728887E-1,-8.68825E-1,1.774242E0,6.346698E-1,1.1462432E0,-7.4485046E-1,-2.168106E-1,4.8161976E-2,9.7870886E-1,7.925053E-3,-1.1033228E-1,1.3358723E-1,-2.6698729E-2,-5.570293E-1,6.1080255E-2,-1.1172689E0,-2.9917195E-2,3.3736598E-2,-2.66143E-3,-5.878884E-3,-2.337583E-2,3.5313235E-3,-1.0002679E-2,-4.1594397E-2,-1.0431609E-2,-1.2337011E-2,3.1787585E-2,4.6217095E-2,4.812479E-3,-1.8577589E-2,1.744636E-2],"split_indices":[117,123,123,44,108,15,0,1,47,50,123,67,97,15,16,0,16,0,85,35,0,7,0,83,0,0,0,0,0,0,0,0,0,0,0,0,0,0,0],"split_type":[0,0,0,0,0,0,0,0,0,0,0,0,0,0,0,0,0,0,0,0,0,0,0,0,0,0,0,0,0,0,0,0,0,0,0,0,0,0,0],"sum_hessian":[2.0111366E3,1.7182734E3,2.9286322E2,1.5540641E3,1.642093E2,2.8190558E2,1.0957655E1,3.738162E2,1.1802479E3,1.1672191E2,4.74874E1,3.9249245E1,2.4265633E2,5.676059E1,3.170556E2,1.2016352E1,1.1682316E3,1.6476871E1,1.0024504E2,3.451897E1,1.29684305E1,2.5831657E1,1.3417586E1,2.2772475E2,1.493158E1,2.3241455E1,3.3519135E1,1.4579315E2,1.7126245E2,1.0091453E3,1.5908621E2,7.893141E1,2.1313627E1,1.587256E1,1.8646408E1,1.0281794E1,1.5549865E1,1.736473E1,2.1036002E2],"tree_param":{"num_deleted":"0","num_feature":"124","num_nodes":"39","size_leaf_vector":"1"}},{"base_weights":[4.7445646E-4,-6.246651E-2,2.3239529E-1,-2.0859568E-1,2.623188E-2,1.663147E-1,6.484389E-1,2.4267253E-1,-2.4690321E-1,9.178912E-2,-2.2908643E-1,2.0667551E-1,-3.4177642E-2,2.0073088E-1,9.449383E-1,5.186781E-2,-3.7960836E-3,-8.0434364E-1,-2.0349264E-1,-1.283113E-1,1.7380111E-1,-3.302705E-1,2.0910977E-1,-8.305502E-2,3.3479887E-1,3.2773256E-2,-1.7923402E-2,1.198791E0,1.8957073E-2,2.9993305E-2,-1.7627588E-2,-5.4861023E-3,-5.1991154E-2,-5.5002845E-3,-2.385568E-2,-8.710113E-3,2.8966054E-2,-2.6244048E-2,1.041096E-2,-4.5138127E-3,-3.0098304E-2,-1.9173697E-2,2.8539503E-2,3.349802E-3,-2.9632574E-2,-8.260629E-3,2.1345848E-2,4.101916E-2,7.469025E-2],"categories":[],"categories_nodes":[],"categories_segments":[],"categories_sizes":[],"default_left":[0,0,0,0,0,0,0,0,0,0,0,0,0,0,0,0,0,0,0,0,0,0,0,0,0,0,0,0,0,0,0,0,0,0,0,0,0,0,0,0,0,0,0,0,0,0,0,0,0],"id":26,"left_children":[1,3,5,7,9,11,13,15,17,19,21,23,-1,25,27,-1,29,31,33,35,37,39,41,43,45,-1,-1,47,-1,-1,-1,-1,-1,-1,-1,-1,-1,-1,-1,-1,-1,-1,-1,-1,-1,-1,-1,-1,-1],"loss_changes":[2.9170816E1,2.0380259E1,1.1540598E1,1.0324665E1,1.6373484E1,1.2775963E1,7.3851814E0,9.265861E0,1.299651E1,1.4089283E1,8.937514E0,1.3188383E1,0E0,6.4902344E0,4.3348217E0,0E0,7.8902197E0,6.164404E0,1.2932398E1,6.9359546E0,1.3744177E1,1.0494881E1,8.360026E0,8.431645E0,1.1417847E1,0E0,0E0,1.1321068E0,0E0,0E0,0E0,0E0,0E0,0E0,0E0,0E0,0E0,0E0,0E0,0E0,0E0,0E0,0E0,0E0,0E0,0E0,0E0,0E0,0E0],"parents":[2147483647,0,0,1,1,2,2,3,3,4,4,5,5,6,6,7,7,8,8,9,9,10,10,11,11,13,13,14,14,16,16,17,17,18,18,19,19,20,20,21,21,22,22,23,23,24,24,27,27],"right_children":[2,4,6,8,10,12,14,16,18,20,22,24,-1,26,28,-1,30,32,34,36,38,40,42,44,46,-1,-1,48,-1,-1,-1,-1,-1,-1,-1,-1,-1,-1,-1,-1,-1,-1,-1,-1,-1,-1,-1,-1,-1],"split_conditions":[8.3104837E-1,-2.5757745E-1,5.9324903E0,-1.3686122E0,7.001314E-1,1.9563035E0,-1.986813E-1,-3.0872804E-1,-5.5024225E-1,-6.41791E-1,8.474219E-1,-5.0903296E-1,-3.4177642E-2,2.8200784E-1,2.1978709E-1,5.186781E-2,-1.9842936E-1,-7.1734615E-2,4.6288818E-1,7.4494404E-1,-1.4730711E0,1.0784732E0,-3.686184E-1,6.7098075E-1,-5.272906E-1,3.2773256E-2,-1.7923402E-2,1.08881086E-1,1.8957073E-2,2.9993305E-2,-1.7627588E-2,-5.4861023E-3,-5.1991154E-2,-5.5002845E-3,-2.385568E-2,-8.710113E-3,2.8966054E-2,-2.6244048E-2,1.041096E-2,-4.5138127E-3,-3.0098304E-2,-1.9173697E-2,2.8539503E-2,3.349802E-3,-2.9632574E-2,-8.260629E-3,2.1345848E-2,4.101916E-2,7.469025E-2],"split_indices":[67,44,74,96,50,26,52,52,45,67,90,78,0,101,83,0,82,50,83,45,99,75,45,8,51,0,0,106,0,0,0,0,0,0,0,0,0,0,0,0,0,0,0,0,0,0,0,0,0],"split_type":[0,0,0,0,0,0,0,0,0,0,0,0,0,0,0,0,0,0,0,0,0,0,0,0,0,0,0,0,0,0,0,0,0,0,0,0,0,0,0,0,0,0,0,0,0,0,0,0,0],"sum_hessian":[1.9952094E3,1.5695491E3,4.2566025E2,5.927608E2,9.7678827E2,3.68734E2,5.6926247E1,4.5759693E1,5.470011E2,7.780445E2,1.9874376E2,3.5285132E2,1.5882683E1,2.348247E1,3.344378E1,1.0168965E1,3.559073E1,3.808714E1,5.0891397E2,2.1072513E2,5.673194E2,1.6184627E2,3.6897495E1,1.08060646E2,2.4479068E2,1.2954606E1,1.05278635E1,2.2191666E1,1.1252112E1,1.2663935E1,2.2926794E1,1.0121417E1,2.7965723E1,3.806324E2,1.282816E2,1.9873221E2,1.1992925E1,2.582948E1,5.414899E2,8.683949E1,7.500678E1,1.385707E1,2.3040424E1,8.399929E1,2.4061356E1,3.7789967E1,2.0700072E2,1.1526578E1,1.0665087E1],"tree_param":{"num_deleted":"0","num_feature":"124","num_nodes":"49","size_leaf_vector":"1"}},{"base_weights":[-1.631514E-3,-7.0793785E-2,1.6947624E-1,-2.1026395E-1,2.9417764E-2,2.1407689E-1,-2.3557788E-1,-2.857646E-1,4.7655936E-2,2.3442131E-1,-5.4075606E-2,1.5600958E-1,6.083945E-1,-7.403794E-1,1.5007599E-1,-1.6135262E-1,-4.8389596E-1,-1.5306108E-1,3.9118588E-1,-3.8139972E-1,3.1913865E-1,-2.6206332E-1,5.3940278E-2,1.0961026E-1,5.677999E-1,1.0388099E0,3.5574064E-1,-1.3648488E-2,-5.651288E-2,-2.3410747E-2,5.178146E-1,-1.2594104E-2,5.7316213E-3,-1.2984167E-2,-3.4849074E-2,1.3145022E-2,-2.0004919E-2,3.133449E-2,-2.3414208E-2,6.977228E-3,-4.6119627E-2,1.2010729E-2,4.6634406E-2,-9.878031E-3,-6.335667E-2,4.7590383E-3,-2.8645238E-2,-1.9241363E-2,7.7387476E-3,1.7176067E-2,5.2329607E-2,2.4118595E-2,7.2318204E-2,-8.713309E-4,4.9572285E-2,4.603537E-2,2.6821082E-3],"categories":[],"categories_nodes":[],"categories_segments":[],"categories_sizes":[],"default_left":[0,0,0,0,0,0,0,0,0,0,0,0,0,0,0,0,0,0,0,0,0,0,0,0,0,0,0,0,0,0,0,0,0,0,0,0,0,0,0,0,0,0,0,0,0,0,0,0,0,0,0,0,0,0,0,0,0],"id":27,"left_children":[1,3,5,7,9,11,13,15,17,19,21,23,25,27,29,31,33,35,37,39,41,43,45,47,49,51,53,-1,-1,-1,55,-1,-1,-1,-1,-1,-1,-1,-1,-1,-1,-1,-1,-1,-1,-1,-1,-1,-1,-1,-1,-1,-1,-1,-1,-1,-1],"loss_changes":[2.396214E1,2.0191906E1,1.0574717E1,1.1796223E1,1.4410535E1,1.1863916E1,1.1470955E1,1.1382553E1,9.550427E0,1.2827987E1,1.3457171E1,8.653891E0,6.766403E0,4.1837883E0,7.8931684E0,7.2636547E0,8.300896E0,9.078925E0,1.06521225E1,8.599918E0,1.0064491E1,1.2874199E1,1.0185518E1,9.2956505E0,4.451522E0,4.569994E0,1.0510769E1,0E0,0E0,0E0,3.9042492E0,0E0,0E0,0E0,0E0,0E0,0E0,0E0,0E0,0E0,0E0,0E0,0E0,0E0,0E0,0E0,0E0,0E0,0E0,0E0,0E0,0E0,0E0,0E0,0E0,0E0,0E0],"parents":[2147483647,0,0,1,1,2,2,3,3,4,4,5,5,6,6,7,7,8,8,9,9,10,10,11,11,12,12,13,13,14,14,15,15,16,16,17,17,18,18,19,19,20,20,21,21,22,22,23,23,24,24,25,25,26,26,30,30],"right_children":[2,4,6,8,10,12,14,16,18,20,22,24,26,28,30,32,34,36,38,40,42,44,46,48,50,52,54,-1,-1,-1,56,-1,-1,-1,-1,-1,-1,-1,-1,-1,-1,-1,-1,-1,-1,-1,-1,-1,-1,-1,-1,-1,-1,-1,-1,-1,-1],"split_conditions":[1.6107866E-1,-1.7210738E-1,9.8970443E-1,9.331316E-1,-2.6470298E-1,1.1658533E0,1.5207414E-1,1.388384E-2,5.9577084E-1,-1.1534339E0,-4.1831192E-1,1.5166503E0,-3.235505E-1,-4.0878687E-2,1.2354633E0,7.328591E-1,2.0645277E-1,-6.819925E-1,7.4404263E-1,3.8154927E-1,1.5882893E0,1.7343888E0,1.3383158E0,-1.6097015E0,3.7221447E-1,-3.6558574E-1,5.462656E-1,-1.3648488E-2,-5.651288E-2,-2.3410747E-2,2.2267455E-2,-1.2594104E-2,5.7316213E-3,-1.2984167E-2,-3.4849074E-2,1.3145022E-2,-2.0004919E-2,3.133449E-2,-2.3414208E-2,6.977228E-3,-4.6119627E-2,1.2010729E-2,4.6634406E-2,-9.878031E-3,-6.335667E-2,4.7590383E-3,-2.8645238E-2,-1.9241363E-2,7.7387476E-3,1.7176067E-2,5.2329607E-2,2.4118595E-2,7.2318204E-2,-8.713309E-4,4.9572285E-2,4.603537E-2,2.6821082E-3],"split_indices":[44,45,123,78,9,44,92,107,34,122,117,117,8,115,123,67,96,113,122,1,113,49,103,115,50,96,98,0,0,0,83,0,0,0,0,0,0,0,0,0,0,0,0,0,0,0,0,0,0,0,0,0,0,0,0,0,0],"split_type":[0,0,0,0,0,0,0,0,0,0,0,0,0,0,0,0,0,0,0,0,0,0,0,0,0,0,0,0,0,0,0,0,0,0,0,0,0,0,0,0,0,0,0,0,0,0,0,0,0,0,0,0,0,0,0,0,0],"sum_hessian":[2.0236414E3,1.4419653E3,5.81676E2,6.028475E2,8.391178E2,5.246275E2,5.7048546E1,4.6655347E2,1.3629404E2,2.4267104E2,5.964468E2,4.5872482E2,6.590267E1,2.442151E1,3.2627033E1,2.8801822E2,1.7853526E2,8.6195335E1,5.0098698E1,2.8780384E1,2.1389066E2,2.0370552E2,3.9274124E2,4.136275E2,4.5097313E1,2.3078785E1,4.2823887E1,1.1996278E1,1.2425233E1,1.1964899E1,2.0662134E1,2.1721602E2,7.080219E1,8.8306E1,9.022926E1,3.1942139E1,5.4253197E1,3.9627525E1,1.047117E1,1.4945733E1,1.3834651E1,1.9088997E2,2.3000675E1,1.9263855E2,1.1066968E1,3.6944305E2,2.3298178E1,3.3805817E1,3.798217E2,3.202317E1,1.30741415E1,1.0784094E1,1.2294691E1,2.7497671E1,1.5326216E1,1.0419353E1,1.0242782E1],"tree_param":{"num_deleted":"0","num_feature":"124","num_nodes":"57","size_leaf_vector":"1"}},{"base_weights":[-8.205718E-3,-9.063252E-2,1.1981339E-1,-3.753241E-2,-3.443927E-1,1.3606162E-1,-4.0744223E-2,-3.264817E-1,2.2411887E-3,-4.5724863E-1,1.8545836E-1,-1.7848429E-1,1.7630215E-1,-4.9037825E-2,-6.157531E-1,-1.9812312E-2,6.517359E-1,-3.20157E-1,-8.556179E-1,-2.6856882E-2,5.405009E-1,-4.632485E-1,1.8870452E-1,2.0586658E-1,-2.5524145E-1,-1.518521E-2,1.783803E-2,-4.372909E-2,-6.7613395E-3,5.0780905E-5,-3.4292802E-2,5.1331837E-2,7.699348E-3,-2.4636876E-2,2.5724384E-3,-5.3923693E-2,-7.4155177E-3,-2.8331692E-3,5.3990085E-2,-5.41342E-2,-8.930503E-3,-1.0001826E-2,2.7946865E-2,8.773574E-3,3.321007E-2,-3.263948E-2,9.800981E-3],"categories":[],"categories_nodes":[],"categories_segments":[],"categories_sizes":[],"default_left":[0,0,0,0,0,0,0,0,0,0,0,0,0,0,0,0,0,0,0,0,0,0,0,0,0,0,0,0,0,0,0,0,0,0,0,0,0,0,0,0,0,0,0,0,0,0,0],"id":28,"left_children":[1,3,5,7,9,11,-1,13,15,17,19,21,23,25,27,29,31,33,35,-1,37,39,41,43,45,-1,-1,-1,-1,-1,-1,-1,-1,-1,-1,-1,-1,-1,-1,-1,-1,-1,-1,-1,-1,-1,-1],"loss_changes":[2.1142632E1,1.6380413E1,1.1956327E1,1.16391325E1,1.270322E1,9.802735E0,0E0,9.734711E0,1.2800786E1,9.113174E0,9.919146E0,9.292908E0,8.789833E0,6.695412E0,7.20693E0,1.1999612E1,5.2011747E0,8.487662E0,6.617241E0,0E0,8.458467E0,8.474979E0,5.7458572E0,8.744019E0,8.096383E0,0E0,0E0,0E0,0E0,0E0,0E0,0E0,0E0,0E0,0E0,0E0,0E0,0E0,0E0,0E0,0E0,0E0,0E0,0E0,0E0,0E0,0E0],"parents":[2147483647,0,0,1,1,2,2,3,3,4,4,5,5,7,7,8,8,9,9,10,10,11,11,12,12,13,13,14,14,15,15,16,16,17,17,18,18,20,20,21,21,22,22,23,23,24,24],"right_children":[2,4,6,8,10,12,-1,14,16,18,20,22,24,26,28,30,32,34,36,-1,38,40,42,44,46,-1,-1,-1,-1,-1,-1,-1,-1,-1,-1,-1,-1,-1,-1,-1,-1,-1,-1,-1,-1,-1,-1],"split_conditions":[1.7641672E-1,7.400454E-1,2.0522742E0,-5.597379E-1,3.8450238E-1,-5.1969254E-1,-4.0744223E-2,-6.050296E-1,8.8618296E-1,5.400955E-1,-3.5979712E-1,2.3305678E-1,1.4425356E0,3.299608E-2,6.4553046E-1,2.1512947E0,-1.1880527E-1,3.7385327E-1,8.4287727E-1,-2.6856882E-2,7.167094E-1,-6.09884E-1,4.1886184E-1,1.076959E0,-2.5080872E-1,-1.518521E-2,1.783803E-2,-4.372909E-2,-6.7613395E-3,5.0780905E-5,-3.4292802E-2,5.1331837E-2,7.699348E-3,-2.4636876E-2,2.5724384E-3,-5.3923693E-2,-7.4155177E-3,-2.8331692E-3,5.3990085E-2,-5.41342E-2,